svm_type c_svc
kernel_type rbf
gamma 0.0555556
nr_class 2
total_sv 2459
rho 0.708848
label 1 0
nr_sv 1103 1356
SV
1 1:-0.62667624 2:-0.63261765 3:-0.50644327 4:-0.4360605 5:-0.24222743 6:-0.25172484 7:0.49058173 8:-0.37414341 9:-1.1177397 10:2.3482839 11:-1.4539711 12:-1.7842884 13:0.094127184 14:0.3313555 15:1.2352185 16:1.8801399 17:0.40795223 18:-0.51738183 
1 1:0.97017594 2:0.97701799 3:0.86924904 4:0.78500383 5:0.78499313 6:0.64469635 7:0.53305719 8:0.5238806 9:0.26368221 10:4.731722 11:0.38106069 12:0.069082546 13:-0.14694011 14:-0.48486664 15:-0.89491253 16:-1.8985671 17:-2.7408711 18:-2.0380741 
1 1:0.26103096 2:0.27596914 3:0.1660998 4:0.16779051 5:0.68175316 6:0.98379233 7:0.100662 8:0.075197281 9:-0.030520852 10:-1.3646434 11:-0.4180686 12:-0.13615038 13:-0.28005156 14:-0.11074863 15:0.10058766 16:0.11888094 17:0.074907395 18:-0.29675268 
1 1:0.42779611 2:0.41802782 3:0.541591 4:0.72260836 5:0.46228884 6:0.26853816 7:-0.72759676 8:-2.5147449 9:-2.3018637 10:-1.3119514 11:-3.6170482 12:-1.2635338 13:-0.1123989 14:0.2732967 15:1.1779689 16:0.096036363 17:-0.044831816 18:-0.32458024 
1 1:-1.0422071 2:-1.0561137 3:-0.95233105 4:-0.46410566 5:-0.19339435 6:-0.16064628 7:-0.82058123 8:-1.0970224 9:1.0994777 10:-1.0715855 11:-1.1219528 12:-0.27380469 13:0.31243963 14:1.3261395 15:1.8313648 16:0.18600856 17:-0.76555067 18:-0.48782055 
0.6954248803418314 1:-0.96630192 2:-0.96268332 3:-1.1027068 4:-1.0796571 5:-0.9249685 6:-0.9636548 7:-0.5989219 8:-0.98014372 9:-1.708177 10:2.8845763 11:-0.7779986 12:-0.61100519 13:-0.54217984 14:-0.19208373 15:0.63018896 16:2.5691689 17:3.2131237 18:-0.1399304 
1 1:-0.048724866 2:-0.044897551 3:-0.065373031 4:-0.10494522 5:0.091860761 6:0.35268438 7:-0.05011765 8:-0.057229451 9:-0.27115492 10:0.5753462 11:-0.88769709 12:-0.88509274 13:-0.15393135 14:0.015160452 15:0.20193399 16:0.53234986 17:0.90670873 18:0.72313024 
0.2609576378527151 1:-0.51433518 2:-0.56184779 3:-0.88408455 4:-0.24911688 5:0.75317648 6:1.5043598 7:0.44881343 8:-0.40561468 9:0.40504723 10:2.1890624 11:-0.14423843 12:-1.2186986 13:-1.0258301 14:-0.16943795 15:0.14851893 16:-0.2268829 17:-0.15396225 18:-0.42802058 
1 1:-0.58943628 2:-0.57638362 3:-0.61164418 4:-0.84117116 5:-1.125408 6:-0.92775205 7:-0.10968413 8:-0.15154307 9:-0.44116459 10:4.0925572 11:0.60626706 12:-0.49437094 13:-0.75040979 14:-1.1296977 15:-0.82593008 16:0.1816753 17:0.1666118 18:0.1441006 
1 1:-0.33854432 2:-0.34108221 3:-0.31742554 4:0.23471395 5:0.13810264 6:0.25852512 7:0.33016804 8:-0.050762808 9:-0.27058698 10:-0.62195173 11:-0.56065572 12:-0.52466419 13:-0.52294297 14:-0.61835083 15:-1.1362646 16:-0.28653857 17:-0.13562643 18:-0.1316663 
1 1:-1.8513232 2:-1.8789316 3:-1.8442915 4:-1.2594682 5:-0.22174839 6:-0.044422145 7:-0.45708777 8:-0.42791065 9:0.15555265 10:4.8895105 11:0.4637567 12:-1.5498992 13:-1.0717626 14:-0.65808007 15:0.15853578 16:0.28574645 17:0.16357167 18:-0.079389305 
0.1535744586340725 1:0.0035168976 2:-0.00078763114 3:-0.021868062 4:0.046239977 5:0.050747326 6:0.4012528 7:0.72841448 8:-0.96451474 9:-1.4711416 10:3.6277065 11:1.2120492 12:-0.22273495 13:-2.3382203 14:-2.1571879 15:0.011736217 16:2.3315398 17:0.79397304 18:-0.6114839 
0.6844238246232809 1:3.3315174 2:3.5220945 3:1.6655689 4:-1.0716713 5:-0.68349852 6:0.84457603 7:3.2624011 8:2.1862991 9:0.28782182 10:3.4341352 11:-0.004909096 12:-1.382094 13:-1.5004881 14:-1.3847518 15:-0.80908042 16:-0.19077347 17:-0.20222164 18:-0.082037347 
1 1:-1.9119407 2:-1.9369433 3:-0.27209771 4:0.16145631 5:0.44089513 6:0.52416224 7:-0.46121209 8:-0.81280771 9:0.20318928 10:5.0384522 11:-0.88022539 12:-0.71147883 13:-0.28449299 14:0.0041780166 15:0.27981731 16:0.35931216 17:-0.13957551 18:-0.31891923 
0.3395529095765324 1:-2.450255 2:-2.4698114 3:-2.448351 4:-1.0526154 5:1.3705639 6:2.8412562 7:1.0885203 8:-0.64606688 9:-1.6111088 10:5.034931 11:-0.74133792 12:-1.878413 13:-1.991042 14:-0.54305604 15:1.7276715 16:2.0336778 17:0.62987263 18:-0.77411383 
1 1:1.5713523 2:1.6278906 3:0.90294755 4:2.0093431 5:4.1950345 6:5.5743466 7:4.5284045 8:1.0664063 9:4.200209 10:6.5833152 11:2.8463587 12:-0.4090825 13:-0.15634734 14:0.075009642 15:-0.33270044 16:-1.0889073 17:-2.507115 18:-4.8963006 
1 1:-0.60416872 2:-0.66868809 3:-0.6177253 4:-0.31527569 5:-0.22885133 6:0.072531579 7:-0.23310568 8:-0.35500037 9:-0.071894084 10:6.2407137 11:2.9111047 12:-0.17732216 13:-1.0472497 14:-1.302143 15:-1.661794 16:-1.7930453 17:-2.1010266 18:-0.64412931 
1 1:0.52896165 2:0.493647 3:-0.07440605 4:0.11494121 5:0.21956133 6:1.0835547 7:1.2160343 8:-2.306059 9:-3.1611904 10:1.0473828 11:-1.0644851 12:-0.58716471 13:0.39705387 14:1.9394915 15:3.6644985 16:4.1626226 17:1.7601524 18:-1.4632007 
1 1:1.8093353 2:1.9049901 3:3.1137162 4:0.72355213 5:-0.40832682 6:0.27404063 7:2.3893184 8:1.4710565 9:-0.23804724 10:3.3814748 11:1.4164372 12:-0.40045148 13:-0.375408 14:-1.8163074 15:-1.1531858 16:1.4198487 17:-0.23313599 18:-0.19252296 
1 1:-0.1735012 2:-0.17667123 3:-0.31013368 4:-0.4920764 5:-0.50714363 6:-0.12779938 7:0.03771779 8:-0.065765555 9:-0.40369745 10:-0.740789 11:-0.26133898 12:-0.12856683 13:0.45465593 14:0.59982588 15:0.42536484 16:0.027742049 17:-0.010620306 18:0.012758448 
1 1:2.5020471 2:2.5833635 3:0.90912634 4:-0.65381638 5:1.2214181 6:5.1047942 7:4.5295634 8:2.8047054 9:1.7997708 10:-3.5501265 11:1.1746932 12:-1.1539271 13:-1.9531146 14:-1.156819 15:-0.33426948 16:0.71500134 17:2.1163524 18:0.31126147 
1 1:-0.30077902 2:-0.29302495 3:-0.24734417 4:-0.20101548 5:-0.23232066 6:0.33692085 7:-0.018345578 8:-0.4451185 9:0.38606368 10:-1.2583693 11:-0.73621095 12:-0.1536349 13:0.014490961 14:0.2253752 15:0.97491548 16:1.9586176 17:1.6765805 18:0.12675425 
1 1:-2.0720833 2:-2.0578698 3:-2.0091384 4:-1.5847417 5:-2.334661 6:-0.81326124 7:-0.37981433 8:0.32350506 9:-0.28905892 10:3.0835733 11:2.5137278 12:2.3663052 13:0.67214898 14:-1.2968928 15:-1.2729858 16:-0.97160288 17:0.1059087 18:-0.42750872 
1 1:-0.16323332 2:-0.20693102 3:1.6109332 4:1.8318057 5:0.62476404 6:-0.27764387 7:0.55708337 8:-0.62228667 9:-1.6649862 10:5.6413684 11:-0.37821083 12:-2.1599275 13:-2.6461303 14:-2.2139772 15:-0.053326026 16:1.8475077 17:1.6780225 18:-0.0046103525 
1 1:-2.59694 2:-2.6727909 3:-1.5158104 4:-0.2548448 5:0.14340569 6:0.30962563 7:0.31936015 8:0.71007922 9:-0.29818766 10:2.5317256 11:-0.29600061 12:-0.18993992 13:-0.4256837 14:-0.57326762 15:-0.38795866 16:0.37557856 17:0.44108068 18:-0.30869037 
1 1:-0.46135962 2:-0.46724255 3:-0.27279797 4:-0.1398508 5:-0.032385554 6:0.66379506 7:0.64594994 8:-0.20353083 9:-0.37746188 10:0.9848652 11:0.092626526 12:-0.68504026 13:-0.24685605 14:-0.25549539 15:-0.27399925 16:0.054197004 17:0.39455677 18:0.41477131 
1 1:0.16989353 2:0.18665177 3:0.22631735 4:0.19341276 5:-0.060552209 6:0.11304668 7:-0.52279444 8:-0.49240082 9:0.41314041 10:5.9968182 11:-0.66037763 12:-0.47119424 13:-0.60274109 14:-0.86379513 15:-0.6892013 16:-0.048867102 17:-0.39713625 18:-0.73929086 
1 1:-0.051312474 2:-0.04622752 3:-0.051902064 4:0.27002585 5:0.84808184 6:0.054031082 7:-0.081435884 8:-0.04438514 9:-0.39647695 10:-2.3093073 11:-0.62092326 12:0.25063424 13:0.32279431 14:0.542114 15:0.68838551 16:0.65407463 17:0.3054665 18:0.089362291 
1 1:-0.17110507 2:-0.17070431 3:-0.13717854 4:-0.061621418 5:0.051784528 6:0.031608262 7:0.55082173 8:0.47478216 9:-0.23157642 10:0.63805084 11:-0.13352907 12:-0.23602143 13:-0.10886903 14:-0.075338336 15:-0.072359677 16:-0.26719718 17:-0.33551013 18:-0.29863111 
0.4855386290306802 1:0.44114207 2:0.44422103 3:0.30708866 4:0.11779299 5:0.23820644 6:0.030198581 7:-0.14925913 8:-0.20644675 9:-0.78189264 10:6.5888378 11:0.26262065 12:-0.87982973 13:-0.90995952 14:-1.0937246 15:-1.577795 16:-2.6755119 17:-2.190145 18:-0.54514764 
0.3318113409170738 1:7.3310207 2:7.5316867 3:0.7443004 4:-1.4917711 5:-1.7231326 6:-0.72288235 7:-0.07503068 8:-0.07354835 9:-0.55507139 10:4.5738814 11:1.2220789 12:-1.5140623 13:-1.9398842 14:-0.84551513 15:0.074924329 16:-0.30914915 17:-0.56094329 18:-0.42481154 
1 1:-0.32782884 2:-0.34388417 3:-0.11801094 4:0.41806127 5:0.45601891 6:-0.15184854 7:-0.51266738 8:-0.49355064 9:-0.50623908 10:1.2675274 11:1.2912588 12:-0.3190348 13:-0.83272312 14:-0.85265995 15:-0.57107773 16:-0.086664069 17:0.78045652 18:1.7701258 
1 1:-1.1486221 2:-1.0935639 3:0.49197479 4:1.4515037 5:3.426185 6:5.3052158 7:2.6483673 8:-0.067346352 9:-0.21337649 10:3.5626165 11:-0.14531289 12:-2.0446178 13:-1.8492422 14:-1.7334509 15:-0.62798346 16:-0.61632629 17:-0.68171072 18:-0.33157473 
1 1:-1.746554 2:-1.7638585 3:-2.032337 4:-1.3328142 5:0.57333209 6:1.489283 7:1.9127624 8:0.64660657 9:-0.33137822 10:-2.224897 11:-3.2291778 12:-1.5679052 13:0.74354503 14:3.0077657 15:2.1934004 16:0.26302592 17:-3.4133939 18:-6.4799657 
0.5149587435368758 1:0.28261102 2:0.30543547 3:-0.027322427 4:-0.26633353 5:-0.57512433 6:-0.53688653 7:-0.55972223 8:-0.50623789 9:-0.4441457 10:-4.6680261 11:-2.6312382 12:-0.22313377 13:0.2436009 14:0.87922724 15:1.6003677 16:2.082826 17:2.1163275 18:1.5061457 
1 1:-1.4830084 2:-1.4901429 3:-1.5091687 4:-1.165183 5:-1.0477051 6:-1.1839412 7:-1.0239429 8:-0.084553496 9:-0.11645291 10:2.2983314 11:1.1990604 12:1.6498567 13:2.5970316 14:3.0854259 15:3.0152926 16:2.6816208 17:1.6256299 18:0.22435803 
0.5569993681927654 1:-0.4879273 2:-0.53484106 3:-0.46796979 4:-0.041526843 5:0.45334412 6:0.14343905 7:-0.11308807 8:0.18626221 9:0.61288674 10:-0.97480599 11:-0.078351123 12:-0.25416689 13:-1.6190139e-05 14:0.10316847 15:0.40232308 16:0.4415316 17:0.43086938 18:0.12738619 
1 1:0.088193389 2:0.088203857 3:0.070589918 4:0.26865769 5:0.87928507 6:0.061678367 7:-0.094032947 8:-0.14242161 9:1.8836422 10:-0.59545326 11:-0.50126287 12:-0.3094069 13:-0.45830629 14:-0.36319693 15:-0.24103864 16:0.076547194 17:0.19653725 18:0.12358724 
1 1:-0.59454808 2:-0.62807512 3:-0.068194499 4:0.77731119 5:0.4862695 6:-0.32857202 7:-0.51877194 8:-0.46076609 9:-0.56598223 10:2.4053095 11:-0.63405734 12:-1.2552837 13:-0.43445588 14:-0.15337613 15:0.44208779 16:1.5008079 17:0.84728775 18:-0.21504652 
1 1:1.248503 2:1.2427217 3:1.1751624 4:1.2346596 5:1.3682712 6:0.77579569 7:0.3736028 8:0.36398473 9:-0.55927768 10:0.77940687 11:-0.14425208 12:-0.48586081 13:-0.46555363 14:-0.42460999 15:-0.71737621 16:-1.320557 17:-1.183987 18:-1.1375157 
1 1:-2.6733427 2:-2.7404065 3:-1.5771944 4:-0.16727256 5:1.1283587 6:1.707866 7:2.0645328 8:2.3559695 9:-0.35522426 10:0.87611038 11:1.1637433 12:-2.3635309 13:-5.779799 14:-7.2260746 15:-0.87744141 16:3.0136924 17:6.5703373 18:3.8061358 
1 1:-0.14979226 2:-0.20430724 3:-0.25319473 4:0.014359513 5:0.10091692 6:-0.13287755 7:-0.88170786 8:-1.3955633 9:-0.84031039 10:-2.9354213 11:-0.92804244 12:1.2926833 13:1.951269 14:2.8958145 15:3.3392565 16:3.5300825 17:3.3252901 18:2.7656312 
1 1:-0.8392365 2:-0.85345625 3:-0.2226842 4:1.0980785 5:1.7356502 6:0.1391854 7:-0.31106431 8:-0.10006176 9:-0.29768092 10:4.0806355 11:0.062785496 12:-1.8193331 13:-1.6738986 14:-1.2996601 15:-0.33225648 16:-0.034321694 17:0.0028466518 18:1.7946709 
1 1:0.98859863 2:0.98708343 3:0.99373086 4:1.0211544 5:0.76627672 6:0.52920293 7:0.73981446 8:0.30689709 9:0.035034453 10:3.3262016 11:0.32091619 12:-1.1966716 13:-1.788913 14:-2.05176 15:-2.2451688 16:-2.0702231 17:-1.5257214 18:-1.2974746 
1 1:0.04702306 2:0.05017821 3:-0.0022449443 4:-0.25400945 5:-0.40145156 6:-0.19363375 7:0.0072227091 8:-0.78545857 9:-0.36933522 10:4.1258614 11:1.0407356 12:-0.65923434 13:-0.6648733 14:-0.66276961 15:-0.51465617 16:-0.020487787 17:-0.60775565 18:-0.94442545 
1 1:1.6131756 2:1.65086 3:0.26655168 4:-0.3051446 5:-0.43386246 6:-0.27987239 7:-0.2270188 8:-0.41035519 9:-0.35886433 10:5.170945 11:0.34732429 12:-1.7616923 13:-1.8286039 14:-1.4938753 15:-0.40277213 16:0.1400524 17:-0.1229315 18:-0.11946034 
1 1:-0.075342034 2:-0.081181907 3:-0.41432691 4:-0.48974644 5:-0.22370876 6:-0.2879127 7:-0.46938942 8:-0.57283238 9:0.42169149 10:-0.73137504 11:-0.75801766 12:-0.1175896 13:0.71238324 14:1.0174239 15:0.28920012 16:-0.56061917 17:-0.15065844 18:5.5789751 
1 1:-0.29727519 2:-0.27605414 3:0.068914203 4:0.063077959 5:0.33673455 6:0.95034851 7:0.047382414 8:-0.078739237 9:0.3164688 10:2.8989197 11:-0.73728872 12:-0.59727845 13:-0.72493894 14:-0.79077808 15:-0.8169889 16:-0.50630619 17:0.02279119 18:0.13535522 
1 1:0.13344172 2:0.13040202 3:0.036130469 4:-0.18229492 5:-0.62414702 6:-0.072519542 7:-0.29523902 8:-0.2197311 9:-0.55180637 10:1.7478704 11:0.50087239 12:0.052066734 13:-0.11962134 14:-0.3000604 15:-1.4114272 16:-0.77028744 17:-0.013690966 18:0.073796669 
1 1:0.69106478 2:0.70382097 3:0.19740858 4:0.033712073 5:-0.038195173 6:-0.16393082 7:-0.060528466 8:0.1248589 9:0.29221654 10:-1.35153 11:0.0068035372 12:-0.2706789 13:-0.4360223 14:-0.19884262 15:0.45890426 16:0.99946619 17:0.55724768 18:0.3158477 
1 1:-0.42103268 2:-0.404412 3:-0.29732177 4:-0.36048644 5:-0.0042124096 6:-0.058646768 7:0.43615376 8:-0.44405172 9:-1.1575905 10:2.9282515 11:0.5089081 12:-0.47679614 13:-0.46335875 14:-1.4214304 15:-1.556005 16:0.29421612 17:0.62265202 18:0.21126764 
1 1:-2.2410471 2:-2.2947755 3:-1.1980578 4:-0.10708002 5:-0.052840149 6:-0.11000653 7:0.85676191 8:0.32704574 9:-0.010715673 10:7.3493042 11:0.18238982 12:-1.1633686 13:-1.4982684 14:-2.3319403 15:-2.4650166 16:-0.75861282 17:-0.14857387 18:-0.062843405 
1 1:-0.31976629 2:-0.31857975 3:-0.29415022 4:-0.23854803 5:-0.19345848 6:-0.0056090156 7:0.027067807 8:-0.20931358 9:-0.86710363 10:4.4026848 11:2.4324201 12:0.5952316 13:-0.71125622 14:-1.0336753 15:-1.5039035 16:-1.528372 17:-1.1105796 18:-0.070059995 
0.1665200508603978 1:-0.33080437 2:-0.39968473 3:1.5710433 4:2.2858031 5:1.2534699 6:-0.00026587483 7:0.97966092 8:0.33467262 9:-0.85985862 10:5.045632 11:-1.1010467 12:-1.902963 13:-1.7315258 14:-0.23671481 15:1.8045331 16:2.0963465 17:0.58300827 18:-0.99794965 
0.4891090235179873 1:0.46591252 2:0.38289465 3:1.8160412 4:1.4610062 5:-0.17280418 6:-1.4001355 7:0.10378583 8:-1.1262805 9:-1.5515999 10:4.6182171 11:-0.91049622 12:-2.5167832 13:-2.5821883 14:-1.4985863 15:0.63930195 16:1.9141581 17:0.58022797 18:-1.2163749 
1 1:-0.5610841 2:-0.58938727 3:-0.70209226 4:0.45303363 5:0.71446316 6:0.23875781 7:0.3494077 8:0.0074276994 9:-0.10307316 10:4.7769857 11:-3.4379099 12:-1.6503664 13:0.095697046 14:-0.63300125 15:-0.98904651 16:-0.41832944 17:0.33618815 18:0.27115457 
1 1:-1.2126148 2:-1.2197892 3:-1.5242273 4:-0.93078187 5:2.7377487 6:4.0068293 7:3.720454 8:1.8736346 9:0.54792367 10:3.5954803 11:0.070568382 12:-1.3768658 13:-0.8943274 14:-0.30500603 15:0.41091073 16:1.5837875 17:0.079980723 18:-2.3382171 
1 1:-0.53811348 2:-0.53251766 3:-0.39663396 4:-0.091324601 5:-0.054046298 6:0.040749527 7:0.2070464 8:0.18823216 9:0.026357057 10:1.4889079 11:-0.94656449 12:-0.55710181 13:-0.13729143 14:0.022769977 15:0.41679734 16:1.1811805 17:0.83919847 18:-0.031048555 
0.1284481712337757 1:-0.70100566 2:-0.6981849 3:-0.85280249 4:-1.1853205 5:-0.98711093 6:-0.45706409 7:-0.23593811 8:-0.18097787 9:-0.58045679 10:4.0273517 11:0.52289983 12:-0.58018838 13:-0.78228053 14:-1.0541717 15:-0.95477284 16:-0.30005493 17:-0.095346503 18:0.0044500729 
1 1:0.44166681 2:0.45967943 3:0.39941245 4:0.3804153 5:-0.1750067 6:-0.38078551 7:-0.38907508 8:-0.31030619 9:-0.37808925 10:1.2980214 11:1.8998312 12:0.26372808 13:-0.5055513 14:-0.48696307 15:-0.2405221 16:0.15075977 17:0.67892142 18:0.60469523 
1 1:-0.042557591 2:-0.044954192 3:-0.0025847298 4:0.0034513039 5:0.50655165 6:0.56449742 7:-0.12412748 8:-0.10943648 9:-0.17070369 10:-2.0185904 11:-0.68307878 12:0.18824518 13:0.2507076 14:0.40905953 15:0.61346163 16:0.63246077 17:0.33544032 18:0.18328019 
1 1:-0.46333916 2:-0.45895225 3:-0.60107258 4:-0.46314067 5:-0.099893319 6:0.034438829 7:0.17577789 8:-0.074253437 9:-0.1964185 10:1.0868063 11:1.6159752 12:0.38606142 13:-0.72456651 14:-0.81507986 15:-0.72669572 16:0.010564181 17:0.60994537 18:0.29931325 
1 1:-0.095000301 2:-0.092773599 3:-0.26445873 4:-0.18459332 5:-0.094140643 6:-0.2637148 7:-0.42743908 8:-0.4493053 9:-0.90145913 10:5.6768591 11:0.42657017 12:-1.021923 13:-1.2327536 14:-1.2757004 15:-1.5919877 16:-2.5933783 17:-2.9307558 18:-0.8243564 
0.7111601700647151 1:0.16693374 2:-0.32926695 3:1.9618274 4:0.2431482 5:-1.1626185 6:-0.98802218 7:-0.13385832 8:0.45972251 9:-0.45470547 10:2.2150827 11:-0.47752176 12:-1.2354938 13:-0.47548358 14:0.44432354 15:0.38533028 16:0.22589442 17:-0.02594799 18:-0.3062983 
1 1:-0.35691843 2:-0.36547499 3:-0.56016279 4:-0.7530846 5:-0.97570655 6:-0.38840736 7:-0.10984013 8:-0.36712503 9:-0.54400058 10:3.3317866 11:0.33725503 12:-0.53614328 13:-0.74479698 14:-0.81918295 15:-1.0238796 16:-0.17154375 17:-0.32409429 18:-0.17447695 
1 1:-0.051414176 2:-0.041359461 3:0.024764273 4:0.031771116 5:0.60388866 6:0.4473145 7:-0.13522175 8:-0.20705033 9:-0.27218952 10:-2.0945061 11:-0.83973194 12:0.09819843 13:0.16028998 14:0.36256518 15:0.61097915 16:0.64586766 17:0.33083099 18:0.092053651 
0.3585089663307071 1:-1.9087195 2:-1.9436754 3:-1.0448039 4:-0.22881202 5:-0.0067759195 6:-0.19422187 7:0.74478663 8:0.53658993 9:-0.67788394 10:4.9749618 11:0.60127537 12:-0.82857281 13:-0.93711709 14:-1.5391667 15:-1.738521 16:0.57984033 17:0.35779051 18:2.2359031 
1 1:1.1842949 2:1.19492 3:0.67756559 4:0.2531217 5:-0.080093802 6:-0.053573208 7:-0.1262105 8:-0.14400827 9:-0.29813633 10:-3.834593 11:-2.1042315 12:0.26161192 13:0.57641291 14:1.4380987 15:2.0016555 16:1.7624064 17:1.0088184 18:0.17637128 
1 1:0.71889666 2:0.7227347 3:0.78101064 4:0.87579873 5:0.95392132 6:1.1252768 7:1.2320886 8:1.4103624 9:1.3647755 10:-1.4601586 11:0.41396515 12:1.4748535 13:-2.327366 14:-3.366047 15:-0.51999621 16:0.065235851 17:0.12438941 18:-1.4283925 
1 1:-0.25778568 2:-0.24224237 3:-0.49722617 4:-0.80175098 5:-0.78669323 6:-0.61569897 7:-0.69004244 8:-2.1763803 9:0.46775937 10:-2.0431342 11:-2.1281787 12:-0.76133576 13:2.0061917 14:1.4447489 15:1.4998582 16:0.33848876 17:-0.84476314 18:-0.66353618 
1 1:-1.5942932 2:-1.5938527 3:-1.738827 4:-1.5869353 5:-0.97155876 6:0.32989506 7:-0.065358718 8:-0.17855164 9:-0.032686268 10:3.6414204 11:-0.29586368 12:-1.4331911 13:-0.68570761 14:0.045504713 15:-0.07527312 16:0.12559262 17:-0.22831913 18:-0.44330767 
1 1:1.5078261 2:1.4960949 3:0.74097749 4:0.9299411 5:0.89683576 6:0.045656231 7:-0.096775218 8:-0.90300017 9:-2.2456238 10:2.803239 11:-0.59995023 12:-2.3897683 13:-3.0881107 14:-5.8129807 15:-8.280231 16:-6.9904716 17:-3.6458148 18:-3.0889364 
1 1:0.24669513 2:0.27277191 3:0.3544237 4:0.344929 5:0.44850537 6:0.44069771 7:0.9038395 8:0.7039716 9:0.3049307 10:3.9749243 11:2.1170269 12:1.2088644 13:1.4792319 14:1.8180691 15:2.221605 16:3.6263967 17:-3.5643927 18:-5.9995311 
1 1:-0.21105438 2:-0.23533503 3:-0.77011714 4:-0.36698022 5:-0.70208236 6:-0.36479843 7:-0.20767482 8:0.064322667 9:0.059141231 10:1.9384378 11:-0.97991186 12:-0.48442915 13:0.40288044 14:0.31065355 15:0.40049693 16:0.97959187 17:1.0898996 18:0.58803656 
1 1:-1.8339885 2:-1.8729737 3:-2.3728115 4:-1.0023683 5:-2.5667846 6:-3.7886737 7:-1.6369079 8:-0.6647725 9:-2.3877977 10:0.83583407 11:-1.560583 12:-1.4583056 13:-0.26122446 14:0.56386401 15:0.027730713 16:0.43085275 17:0.80698833 18:0.47810606 
1 1:-0.55377245 2:-0.64515386 3:-0.89853192 4:-0.041851826 5:1.2076377 6:2.1639037 7:1.0687349 8:-0.057010369 9:-0.16719679 10:5.6484507 11:0.50878056 12:-2.2545736 13:-2.0381929 14:-1.6316358 15:-0.39542731 16:-0.39117988 17:-0.46852776 18:0.43324122 
1 1:-0.48477022 2:-0.47889629 3:-0.78673052 4:-1.3614498 5:-1.3082279 6:-0.90867289 7:-0.45113369 8:-0.91591844 9:-0.70511433 10:3.787012 11:0.69797764 12:-0.92384282 13:-0.96978103 14:-0.87135059 15:-0.51849096 16:0.55093908 17:0.89703421 18:0.94043267 
1 1:-0.85087784 2:-0.85026995 3:-0.90656266 4:-0.9570599 5:-0.84847664 6:-0.91415107 7:-0.32730565 8:0.3619628 9:-1.3003174 10:4.4084946 11:-0.59609214 12:-1.0411732 13:-0.87807639 14:-0.51701501 15:0.40587922 16:2.0680773 17:1.7123841 18:0.094809091 
1 1:-0.18324235 2:-0.18628873 3:-0.22383091 4:-0.17765891 5:-0.092690951 6:-7.9555873e-05 7:-0.19572915 8:-0.31556853 9:-0.0097878117 10:4.1908263 11:1.5583616 12:-0.26624515 13:-0.79700341 14:-1.0218863 15:-1.236966 16:-0.95118446 17:-0.24765112 18:-0.085558111 
0.9474297746469078 1:-0.27796739 2:-0.27911386 3:-0.27004332 4:-0.23664964 5:-0.219232 6:-0.14629225 7:-0.17678077 8:-0.49927632 9:0.53734842 10:5.985934 11:2.3896039 12:-0.50017966 13:-1.3770343 14:-1.8992384 15:-2.0839534 16:-1.4462032 17:-0.38634484 18:3.540609 
0.9239153809672072 1:2.862567 2:2.6052159 3:-1.4619384 4:-1.5358688 5:0.047580482 6:0.77900555 7:-0.22831082 8:-0.89029431 9:-0.21209826 10:2.1301493 11:-0.82201462 12:-1.3258764 13:-0.31607442 14:1.4618413 15:0.15267074 16:-0.68239976 17:-0.50662367 18:-0.35800444 
1 1:-0.65030259 2:-0.6462305 3:-0.73778397 4:-0.83056395 5:-0.54755526 6:-0.67275142 7:0.46049724 8:-0.27702272 9:-1.0908563 10:2.5012198 11:-1.632881 12:-1.5721971 13:0.28767892 14:0.78940054 15:1.6361845 16:1.8702638 17:0.37146565 18:-0.53637226 
0.433333349446802 1:1.1705207 2:1.23681 3:0.42052093 4:-0.50519685 5:-0.9695417 6:-0.81807565 7:-0.012516395 8:-0.50024835 9:-1.1654677 10:3.5284191 11:0.04009325 12:-0.8464166 13:-1.5249854 14:-0.4449579 15:0.97862209 16:0.78072563 17:-0.46949873 18:-0.31122711 
1 1:-0.14874126 2:-0.13332117 3:-0.021087605 4:0.0069648193 5:0.054840092 6:0.51185001 7:0.38946819 8:-0.097922119 9:-0.27748766 10:0.98833547 11:-0.0797512 12:-0.96420558 13:-0.31857247 14:-0.31763689 15:-0.18551545 16:0.13705557 17:0.298025 18:0.20125559 
1 1:-0.97938415 2:-1.0111618 3:-0.14389304 4:-0.1343208 5:-0.3782169 6:-0.3316942 7:-0.45805464 8:-0.75304845 9:-0.75464758 10:6.5051702 11:1.0176747 12:-2.0666788 13:-1.9646939 14:-1.5819972 15:-0.29711126 16:-0.026257188 17:-0.70859044 18:-0.71363653 
0.3167811246349956 1:-0.92383927 2:-0.94285602 3:-0.84659879 4:-0.40322573 5:-0.77775543 6:-0.99869057 7:-0.73810653 8:-0.048274151 9:-0.16392016 10:2.402244 11:1.1898485 12:1.3983366 13:1.7220638 14:2.0232466 15:2.4005519 16:2.7439319 17:2.4989345 18:1.7509914 
1 1:-0.37032099 2:-0.39310574 3:-0.073208072 4:0.3299776 5:0.51180457 6:0.13091255 7:-0.38919039 8:-0.45998562 9:-0.47711184 10:1.0050293 11:1.4623659 12:0.03303441 13:-0.59478529 14:-0.58093649 15:-0.38576575 16:-0.074385917 17:0.56646872 18:0.5516759 
1 1:0.39904536 2:0.39463803 3:1.0743887 4:1.7613038 5:1.4151223 6:0.81738088 7:0.34503453 8:-0.016593932 9:-0.029120652 10:-3.5167028 11:-1.7823888 12:0.064110389 13:1.0709631 14:1.7537716 15:1.509593 16:0.69250445 17:0.41151366 18:0.051611938 
1 1:-0.31900997 2:-0.33211681 3:-0.30929034 4:-0.22801742 5:-0.31461578 6:0.2593492 7:0.0045521339 8:-0.4752968 9:0.32000334 10:-1.1757216 11:-0.86546911 12:-0.15018935 13:0.024361007 14:0.28632254 15:0.97680701 16:1.860604 17:1.868223 18:0.3514958 
1 1:-0.58604858 2:-0.58620165 3:-0.64305116 4:-0.64003236 5:-0.71306139 6:-0.73501051 7:-0.45696655 8:0.090330598 9:-0.87188638 10:3.0537536 11:-0.4820287 12:-1.0248005 13:-0.96095838 14:-0.72192621 15:0.24848565 16:1.9466542 17:1.6521715 18:0.080540221 
1 1:-0.0046282408 2:0.0016720805 3:0.055242309 4:0.40804038 5:0.75779268 6:-0.074845293 7:-0.064626889 8:0.0061152669 9:1.9492982 10:-0.85733639 11:-0.47453092 12:-0.29639811 13:-0.36257751 14:-0.28459528 15:-0.11634065 16:-0.018663959 17:0.26437355 18:0.26883027 
0.8583275141257408 1:1.738885 2:1.8092131 3:2.1268134 4:0.94686146 5:-0.45989288 6:-0.96246635 7:0.2420804 8:-0.43843283 9:-1.5100332 10:5.6941518 11:-1.0469457 12:-2.0558563 13:-2.2725403 14:-1.7201945 15:-0.14417273 16:1.4588763 17:0.92377262 18:-0.26564851 
1 1:3.1142168 2:3.2355487 3:0.7810543 4:-0.13250952 5:0.5253361 6:0.9691187 7:2.2888066 8:3.7430508 9:2.1975142 10:5.7156421 11:0.43529818 12:-2.0998256 13:-2.5219999 14:-1.8043959 15:0.89956147 16:0.31621759 17:-3.5099248 18:-5.5841383 
1 1:-2.0043683 2:-2.0181131 3:-1.7505147 4:-1.0181508 5:0.19916512 6:-0.5368142 7:-0.7195289 8:-0.73482812 9:1.3358428 10:7.9031772 11:3.0124077 12:-2.3978614 13:-2.5498402 14:-1.5738634 15:-0.26980638 16:-0.65351355 17:4.2702741 18:-0.81612126 
1 1:-0.56442708 2:-0.56923602 3:-0.62688196 4:-0.61277175 5:-0.53422684 6:-0.39115734 7:0.49635287 8:0.49347709 9:-0.25665497 10:0.50356859 11:-0.047108521 12:0.12628754 13:0.20392893 14:0.22436414 15:0.17153244 16:0.088647101 17:0.25461729 18:-0.31883074 
1 1:-0.30627939 2:-0.30518903 3:-0.29700726 4:-0.18857244 5:-0.11179253 6:-0.077931099 7:-0.19074701 8:-0.46264416 9:0.55450009 10:5.9838969 11:2.332345 12:-0.4879875 13:-1.2455209 14:-1.4087298 15:-1.6648553 16:-1.5457981 17:-0.30355002 18:-0.15368454 
1 1:-0.52946712 2:-0.49549372 3:-0.53454051 4:-0.64207566 5:-0.55925335 6:-0.55273598 7:-0.31498644 8:-0.46013608 9:0.49196516 10:6.826998 11:1.3031257 12:-1.9021644 13:-2.2912779 14:-1.9960243 15:-1.5300617 16:-0.19867461 17:0.48205613 18:0.73354389 
1 1:-0.44113351 2:-0.41305513 3:-0.44049299 4:-0.29283333 5:-0.29674264 6:-0.22719348 7:-0.17764339 8:-0.081010526 9:-0.22604485 10:1.4159972 11:-0.8269665 12:-0.64763971 13:-0.11236278 14:-0.098150196 15:0.0095234487 16:0.5397596 17:0.9908907 18:0.6152087 
1 1:-0.33659042 2:-0.33776729 3:-0.28439266 4:-0.20622624 5:-0.3575963 6:-0.22471733 7:-0.16526079 8:-0.13223361 9:-0.1245234 10:-3.5893078 11:-1.5653694 12:0.1676906 13:0.62995297 14:1.4762439 15:2.0849401 16:1.4592792 17:0.66764075 18:0.15149538 
1 1:-1.1590532 2:-1.1739935 3:-1.7503961 4:-1.9779563 5:-1.715497 6:-0.97475218 7:-0.051251226 8:-0.30219583 9:-0.25319429 10:4.6756914 11:0.37726558 12:-1.625638 13:-1.2172594 14:-0.59272508 15:0.0427614 16:-0.24841503 17:0.085445416 18:1.3576772 
1 1:-0.03798996 2:-0.035610893 3:-0.080275465 4:-0.015375878 5:0.080375217 6:0.15474018 7:-0.20650443 8:-0.25609576 9:0.021482057 10:4.2877294 11:1.4937152 12:-0.27387945 13:-0.77059291 14:-1.0149385 15:-1.1331999 16:-1.1345833 17:-0.57804982 18:0.095152464 
0.3478089501104133 1:-0.23787944 2:-0.23688487 3:-0.20887416 4:-0.14053423 5:-0.013425901 6:0.05848968 7:-0.12368463 8:-0.28096461 9:-0.3146018 10:5.888872 11:2.9172965 12:0.062740562 13:-1.1004688 14:-1.4644067 15:-1.7900622 16:-2.0784314 17:-1.1420412 18:-0.15653524 
1 1:-0.58924898 2:-0.60071062 3:-0.86285115 4:-0.50155521 5:-0.034515416 6:-0.44278315 7:-0.63306 8:-0.2115572 9:-0.27398232 10:2.4461422 11:1.3080357 12:1.7581419 13:0.91306461 14:1.0490289 15:-0.88677456 16:-2.2792757 17:-1.7828735 18:-0.51198853 
1 1:0.10358932 2:0.10202233 3:0.072640121 4:0.31329956 5:0.19139867 6:-0.13794167 7:-0.0481983 8:-0.025020635 9:1.0039459 10:4.7856929 11:0.40154187 12:-1.6985937 13:-2.0767562 14:-1.6767922 15:-1.4311526 16:-0.58897677 17:0.24812663 18:0.20928422 
0.495354877057438 1:-1.1651989 2:-1.1600664 3:-1.7748005 4:-2.2991998 5:-2.4955291 6:-1.1784427 7:-0.28767923 8:-0.5751424 9:-1.076055 10:2.5793004 11:-0.43419871 12:-0.37779618 13:-0.15907457 14:0.47632971 15:1.5515541 16:0.79729442 17:-0.31935531 18:-0.41524761 
1 1:-0.3061925 2:-0.3125985 3:-0.37311919 4:-0.28950235 5:-0.25311648 6:-0.17606244 7:-0.25446104 8:-0.60335238 9:1.3172563 10:6.4969009 11:2.1338449 12:-0.28669839 13:-1.3400797 14:-1.461793 15:-1.6268124 16:-1.9109347 17:-0.89707148 18:-0.1783823 
1 1:-0.34115085 2:-0.34036675 3:-0.33145832 4:-0.071027572 5:-0.24478286 6:-0.51945908 7:-0.48657684 8:-0.58803612 9:0.70675902 10:2.1504209 11:-0.086964386 12:-0.65905176 13:-0.67692367 14:-0.44291656 15:0.15126064 16:1.2164172 17:0.65824619 18:-0.0055677332 
0.6642344547035213 1:-0.044317831 2:-0.1743606 3:-0.72886468 4:0.27159128 5:-0.10143604 6:0.26359898 7:-0.74690686 8:-0.15269785 9:0.66274593 10:5.5610323 11:0.74573638 12:-1.3358899 13:-1.8148148 14:-1.5571092 15:-0.55961043 16:0.066618147 17:-0.16490005 18:-0.32132911 
0.1950879878648192 1:-0.85736909 2:-0.8734422 3:-0.88603752 4:-0.03220334 5:-0.1467276 6:-0.57244553 7:-0.52244497 8:-0.0019446891 9:-0.031716249 10:0.65117818 11:-0.66396458 12:-0.56675386 13:0.55109351 14:0.033487676 15:-0.73294139 16:-1.1926146 17:-1.2827161 18:-0.86255771 
1 1:-2.0440558 2:-1.8017411 3:-0.24803714 4:-0.15472719 5:1.2212284 6:3.0762277 7:1.374447 8:-0.18511693 9:-0.84944016 10:3.1139133 11:-0.68660348 12:-1.9148442 13:-1.6185984 14:-0.39052321 15:-0.18122578 16:-0.61841526 17:1.7458347 18:-0.56731555 
1 1:0.2817077 2:0.32140641 3:0.52731329 4:0.55549258 5:-0.15917905 6:-0.40746114 7:-0.41522385 8:-0.4454289 9:0.59630033 10:1.7705416 11:0.43926454 12:-0.51280564 13:-0.52404205 14:-0.34081221 15:0.00020091716 16:0.54404063 17:0.64362851 18:0.0048298774 
0.7792042532757117 1:-0.88633185 2:-0.90943403 3:-0.66319577 4:-1.0385142 5:-1.2469838 6:-1.2442896 7:-1.1199241 8:-0.88219823 9:-0.57396081 10:1.2240279 11:-1.0008037 12:-1.3963594 13:-0.72281292 14:0.39200635 15:0.81840115 16:1.0412464 17:2.1904993 18:3.6618004 
1 1:0.2712063 2:0.27135937 3:0.16461995 4:0.010240588 5:-0.25782757 6:-0.2177149 7:-0.24705832 8:-0.17357208 9:0.024355113 10:-3.8434237 11:-2.1386739 12:0.15721979 13:0.43141406 14:0.90075713 15:1.4581069 16:1.6528445 17:1.4510063 18:0.8374963 
1 1:-0.15233351 2:-0.1569717 3:-0.044344506 4:0.089249644 5:0.65871743 6:0.75842633 7:-0.1741979 8:-0.3354055 9:0.32469329 10:2.690153 11:-0.83288598 12:-0.61794233 13:-0.70244787 14:-0.87009279 15:-0.73726871 16:-0.37964634 17:0.11711942 18:0.26492211 
1 1:-0.76072906 2:-0.75032639 3:-0.77477932 4:-0.7555492 5:-0.72476058 6:-0.88089112 7:-0.24520714 8:0.25391466 9:-1.2069346 10:4.4826344 11:-0.55216764 12:-0.91197032 13:-0.80598608 14:-0.56561934 15:0.26744153 16:1.8021072 17:2.0221665 18:0.40807803 
1 1:1.8033598 2:2.2286242 3:0.67721022 4:-1.311485 5:-0.84919627 6:0.76452116 7:0.79649477 8:-0.28317244 9:0.18145231 10:-2.1645618 11:0.98182018 12:-0.94647289 13:-0.74069821 14:-0.079909536 15:0.91794379 16:0.88692937 17:-1.5652721 18:1.5413483 
1 1:0.082859628 2:0.14072486 3:-0.3692297 4:-0.24870861 5:-0.22828444 6:-0.97025243 7:0.084294164 8:-0.75290875 9:-0.041882508 10:5.9610774 11:1.2904695 12:-1.4106163 13:-1.7425419 14:-1.3850442 15:-0.33719357 16:0.5179547 17:-0.1152694 18:-4.1573846 
0.09778816342317387 1:-0.78679386 2:-0.79075993 3:-0.75232943 4:-0.79056446 5:-0.60517612 6:-0.3678944 7:1.3478132 8:0.073292246 9:1.1962401 10:6.1586898 11:2.4740383 12:-0.26493426 13:0.10538286 14:0.50942123 15:0.81709265 16:0.5064993 17:-1.8506286 18:-3.1987699 
0.277397525943048 1:-0.54310831 2:-0.54119064 3:-0.76623551 4:-0.93260715 5:-1.0533831 6:-0.4987727 7:-0.16455938 8:-0.13151847 9:-0.42763734 10:3.4562822 11:0.49743898 12:-0.62880212 13:-0.84374075 14:-0.92742944 15:-0.76068774 16:-0.22040392 17:-0.14867008 18:-0.15069802 
0.5224097848707819 1:0.0064468331 2:0.0094070868 3:0.11922287 4:0.1704551 5:0.085399205 6:0.19916139 7:0.21542507 8:0.240312 9:0.21822977 10:-3.2153545 11:-1.491966 12:0.25511505 13:0.31009231 14:0.45842963 15:0.6621093 16:0.89772478 17:1.1815873 18:1.1010286 
1 1:-1.7257933 2:-1.776475 3:-0.86009326 4:-0.050045768 5:0.09287541 6:0.056980403 7:0.98337174 8:0.39118312 9:-0.64956146 10:5.4494461 11:1.1104797 12:-0.73744112 13:-1.12247 14:-1.5944545 15:-1.5131306 16:-0.31442332 17:0.84071671 18:-0.29433806 
1 1:-3.1132664 2:-3.0905337 3:-1.8766491 4:-0.33881423 5:0.050521688 6:0.050113272 7:-0.31773417 8:-0.43140801 9:0.038538542 10:5.8960304 11:-0.59290761 12:-0.50156771 13:-0.94170547 14:-0.52698171 15:-0.011881152 16:-0.16783649 17:-0.33991997 18:0.30124644 
1 1:0.13422697 2:0.13382896 3:0.064045729 4:-0.060426129 5:0.10043494 6:-0.14033892 7:-0.11858314 8:-0.27936268 9:0.26949205 10:6.4208987 11:1.0838616 12:-1.7732603 13:-2.116616 14:-1.6718337 15:-0.98263224 16:-0.00056030147 17:-0.19163372 18:0.1133308 
1 1:0.039637846 2:0.024794347 3:0.11079057 4:0.18181884 5:0.1610624 6:0.039615038 7:0.14215193 8:0.29211605 9:0.25681205 10:3.5054563 11:1.2280132 12:-0.087164117 13:-0.51962223 14:-0.87140662 15:-1.1103333 16:-1.6455948 17:-1.7517101 18:-0.51589667 
0.2031582402107364 1:-1.7717682 2:-1.7794546 3:-2.1674133 4:-1.6550822 5:0.2257417 6:2.8459791 7:1.6609421 8:0.017460175 9:-1.7070793 10:6.0826324 11:-0.59191151 12:-2.0629416 13:-2.480548 14:-1.4302179 15:1.0762315 16:1.6212196 17:0.3088212 18:-0.73127758 
1 1:0.62512475 2:0.6271716 3:0.47233038 4:0.58804579 5:0.65326937 6:-0.42032224 7:-0.37611952 8:-0.26455758 9:-0.12372383 10:6.2534528 11:-0.099399452 12:-2.3341972 13:-1.3469176 14:-1.5657751 15:-1.4315406 16:-0.69555108 17:0.053870094 18:0.59618947 
0.1601038898945081 1:-1.1814555 2:-1.2006202 3:-0.85014972 4:-1.1883739 5:-0.75512739 6:-0.53740263 7:-1.1814713 8:-1.4292301 9:-2.1028217 10:3.3596587 11:-2.0734429 12:-0.979717 13:-0.62268353 14:-0.35669756 15:0.12036103 16:0.80498089 17:1.5540583 18:1.188234 
1 1:-0.83312875 2:-0.91845923 3:1.0288246 4:1.9761127 5:1.023378 6:-0.49277836 7:0.099031693 8:-0.68455943 9:-1.776336 10:5.8580053 11:-0.406552 12:-2.2158155 13:-2.6134383 14:-2.0821927 15:-0.083799029 16:1.8535364 17:1.7115916 18:0.21633792 
1 1:0.087757813 2:0.095026621 3:0.57744076 4:0.55958266 5:0.22405414 6:-0.3496565 7:-0.44344128 8:-0.18009033 9:1.3616873 10:-1.5216587 11:-0.44862844 12:-0.053297718 13:0.21853457 14:0.90863983 15:1.5989977 16:0.70226706 17:-0.067283793 18:-0.18997513 
1 1:0.01740486 2:0.026291901 3:0.075281426 4:0.19267202 5:0.95899525 6:0.32005072 7:-0.053216104 8:-0.33005322 9:-0.52208112 10:-1.7173948 11:-0.71451927 12:-0.2786296 13:-0.16910471 14:0.27397644 15:0.69695528 16:0.5950667 17:0.17605416 18:0.10920105 
1 1:-0.59872111 2:-0.58679882 3:-0.99220325 4:-2.1103375 5:-0.92604326 6:1.9484291 7:2.5962527 8:0.61459056 9:2.4164754 10:6.1582627 11:-5.9538364 12:-10.220613 13:-6.9551545 14:-2.8251031 15:1.2807109 16:2.3180758 17:1.4158375 18:-0.2214664 
1 1:-0.35127903 2:-0.40354945 3:0.58251364 4:2.7641463 5:3.7942005 6:0.91349671 7:-0.42740793 8:-0.81443197 9:-0.56846455 10:4.9815097 11:0.75705157 12:-1.7582943 13:-1.1855029 14:-0.30645733 15:-0.068792126 16:-0.20674688 17:-0.48867924 18:-0.50327897 
1 1:-0.16709847 2:-0.15771494 3:-0.23969722 4:-0.13595006 5:-0.078307838 6:0.30607983 7:0.4772069 8:-0.33531877 9:-0.31432215 10:0.84055786 11:0.39388515 12:-0.85983265 13:-0.41523992 14:-0.43766458 15:-0.34253358 16:-0.068915357 17:0.12413025 18:0.15113071 
1 1:-0.054689401 2:-0.044003645 3:-0.05254475 4:-0.10397031 5:-0.20729087 6:-0.11282387 7:0.26106644 8:-0.21694555 9:-0.15723392 10:6.0669895 11:-0.059949125 12:-0.73936696 13:-0.92498379 14:-1.4152768 15:-1.6022768 16:-1.2590561 17:-0.49031143 18:-0.40350334 
1 1:1.5182819 2:1.5759831 3:5.708541 4:-0.98672997 5:-1.8811588 6:-1.767491 7:-1.2249391 8:-0.14009948 9:0.34305889 10:3.25321 11:-0.37272967 12:-1.2105583 13:-0.98118345 14:-0.64364553 15:0.46279637 16:0.87144901 17:0.58131798 18:0.57813676 
1 1:-0.31152177 2:-0.33778424 3:-0.16165424 4:-0.11988333 5:0.33082433 6:0.79591555 7:0.043512337 8:0.0038454525 9:-0.2234615 10:-1.5250777 11:-0.39406508 12:0.12521379 13:0.17944729 14:0.38673549 15:0.62439781 16:0.60291739 17:0.41647001 18:0.47974932 
1 1:-0.22664336 2:-0.21757767 3:-0.42921076 4:-0.32263628 5:0.22687564 6:0.1747283 7:0.5509158 8:-0.12442469 9:-0.57996433 10:4.2046174 11:-0.24026302 12:-1.2646713 13:-1.1948304 14:-1.7240645 15:-1.5331679 16:0.98853071 17:-0.17897345 18:-1.5225386 
1 1:-0.31547417 2:-0.31997263 3:-0.29098159 4:-0.24591925 5:-0.27235065 6:0.31681158 7:0.042257705 8:-0.44481355 9:0.37979639 10:-1.2520732 11:-0.71264335 12:-0.16562762 13:-0.027336552 14:0.29200558 15:1.0693852 16:2.1259187 17:1.7938542 18:0.098886554 
0.3256472752520339 1:-0.1017516 2:-0.083225907 3:-0.1238599 4:-0.030386427 5:-0.18123981 6:-0.075332196 7:-0.33781316 8:-0.5500069 9:0.15485189 10:6.2604848 11:-1.0017193 12:-0.74029484 13:-0.82263687 14:-1.0801542 15:-0.71619125 16:0.02758989 17:-0.030123376 18:-0.21345545 
1 1:1.127236 2:0.73753267 3:2.708316 4:1.3901692 5:-1.6348509 6:-1.5845411 7:-0.39963153 8:-0.0066695112 9:-0.17290563 10:3.6038822 11:-0.11378791 12:-1.8332941 13:-1.3873645 14:-0.093257882 15:-0.004392669 16:-0.17786896 17:-0.22562503 18:0.43779087 
1 1:-0.19075815 2:-0.20447658 3:-0.26546246 4:-0.16699835 5:-0.20391788 6:0.28623163 7:0.014434927 8:-0.31206124 9:0.52508053 10:-0.76764035 11:-0.55888703 12:-0.030546515 13:0.10421048 14:0.39700154 15:1.2045109 16:2.1447772 17:1.4851054 18:-0.038889093 
1 1:2.6330966 2:2.5271437 3:3.5803349 4:2.2248387 5:0.79283196 6:1.7959524 7:3.4427649 8:2.2221066 9:-0.14902709 10:3.3436152 11:-0.024408764 12:-2.4424991 13:-4.2843978 14:-3.2880958 15:-1.6582565 16:-0.67790531 17:-1.1205886 18:-0.5974985 
1 1:0.65273457 2:0.64444296 3:0.48216935 4:0.65753398 5:0.56644686 6:-0.50870223 7:-0.41809003 8:-0.2607037 9:-0.12106666 10:6.4296678 11:0.24909112 12:-2.5659871 13:-1.4490057 14:-1.6675308 15:-1.5675867 16:-0.86943647 17:-0.090574187 18:0.58608749 
0.09529451883243556 1:-0.10826185 2:-0.078102717 3:0.067091808 4:-0.0098684141 5:-0.01477333 6:-0.40618147 7:-0.02296745 8:0.063394916 9:-0.61957332 10:6.3511262 11:0.53682717 12:-0.42919042 13:-0.58397725 14:-0.99993916 15:-0.99940418 16:-1.6704975 17:-2.3951552 18:-0.89366299 
0.7476596267348727 1:-0.3832863 2:-0.35101041 3:-0.46832963 4:-0.66519384 5:-0.41004314 6:-0.18793741 7:0.21506611 8:-0.054102213 9:-0.40344788 10:1.4487736 11:0.013221486 12:0.19140221 13:0.27025771 14:-0.19594803 15:-0.62222812 16:-0.67940292 17:-0.36866081 18:-0.023641794 
1 1:-0.012426325 2:0.050006583 3:-0.27564435 4:-0.90399488 5:-1.4696334 6:-1.461136 7:-0.66583401 8:-0.46673564 9:0.18428002 10:-4.4296224 11:-1.8902369 12:0.24489322 13:0.71006992 14:1.5292911 15:1.8472594 16:1.8631156 17:1.4713298 18:0.88615389 
0.3959976883116302 1:-0.021532978 2:-0.018002125 3:0.075012299 4:0.043840461 5:0.13477664 6:0.65997104 7:0.39099513 8:-0.13181689 9:-0.36040437 10:1.5151288 11:0.49009649 12:-0.805773 13:-0.45996949 14:-0.50350613 15:-0.46898259 16:-0.23153499 17:0.0030944542 18:0.16523399 
1 1:-0.38569582 2:-0.39706495 3:-0.86084334 4:-0.84526042 5:-0.3899192 6:-0.35597586 7:-0.080725254 8:0.24772 9:-0.22979141 10:1.5399474 11:-0.66687318 12:-0.60407647 13:-0.14218961 14:-0.13818576 15:0.00063627234 16:0.41350853 17:0.8610851 18:0.37414809 
1 1:-0.12290932 2:-0.12952974 3:-0.09649491 4:0.14766515 5:-0.081583547 6:-0.37391762 7:-0.46388515 8:-0.61403893 9:0.39856398 10:0.86102239 11:-0.87078013 12:-0.77685698 13:-0.64822496 14:-0.31833958 15:0.37834551 16:1.3222632 17:0.52193063 18:-0.37063463 
1 1:-0.2064054 2:-0.21157265 3:0.071265676 4:0.10575195 5:-0.090559959 6:-0.4840813 7:-0.29108721 8:-0.18900289 9:-0.039082798 10:5.3453945 11:0.70106073 12:-1.7595866 13:-1.9498439 14:-1.8555174 15:-1.0315125 16:-0.16154909 17:-0.21985676 18:-0.53098266 
1 1:0.47808187 2:0.449932 3:1.2138484 4:1.8365217 5:1.3988795 6:0.87020029 7:0.27550015 8:-0.069127482 9:-0.10841511 10:-3.4343986 11:-1.8035669 12:0.056864891 13:0.73677874 14:1.7406887 15:1.7246121 16:1.0744075 17:0.53057357 18:-0.059054643 
0.9568582984666382 1:-5.5570016 2:-5.6532694 3:-3.2819949 4:-0.46451872 5:0.16565787 6:-0.48582042 7:-0.14981241 8:-0.68293154 9:-1.5012539 10:5.3414218 11:-0.43227101 12:-1.8139866 13:-2.1520962 14:-1.1083148 15:1.4395495 16:2.5708709 17:1.2935601 18:-0.36485102 
1 1:0.29277833 2:0.41040951 3:1.0760147 4:-0.41968916 5:-0.077693086 6:0.13828592 7:-1.5419714 8:-1.6675666 9:0.4193023 10:5.0851094 11:3.0369569 12:1.1547579 13:-0.016489167 14:-2.5918836 15:-2.710505 16:-1.6076994 17:-1.3585098 18:-4.2587024 
1 1:-0.76123741 2:-0.7649794 3:-0.50938335 4:0.13301638 5:1.3980393 6:0.73572034 7:-0.21782867 8:-0.63087987 9:-0.76615859 10:2.8251555 11:0.21732463 12:-0.86252588 13:-0.70424129 14:-0.25986604 15:0.096494388 16:0.6000723 17:0.026967496 18:-0.36370209 
0.9287945143307778 1:0.24467809 2:0.27388974 3:0.4813785 4:-0.0093594203 5:-0.56393691 6:-1.8022761 7:-2.3059704 8:-2.3112039 9:-1.9684218 10:8.5266811 11:3.219393 12:-1.5653108 13:0.3628601 14:-0.17565385 15:-0.36277434 16:0.61714789 17:1.7468471 18:2.1885265 
1 1:0.57836086 2:0.58117376 3:0.54824984 4:-0.2498559 5:-0.64163745 6:-0.10073321 7:-0.095439007 8:-0.13937136 9:-0.63708119 10:0.025152034 11:0.02105749 12:0.19266574 13:0.30022424 14:0.24517922 15:-0.71303697 16:-0.6700754 17:-0.46256198 18:-0.26118358 
1 1:0.54480096 2:0.53172896 3:0.49967735 4:0.62302876 5:0.35335049 6:-0.48868157 7:-0.39060947 8:-0.23290913 9:-0.20187 10:6.2275844 11:-0.230276 12:-2.2221255 13:-1.3315197 14:-1.5783117 15:-1.3774894 16:-0.53687206 17:0.21091379 18:0.56990863 
1 1:-5.0367049 2:-4.9355833 3:-3.6217043 4:-2.9696772 5:0.43461853 6:3.5659831 7:2.1194 8:1.3662066 9:1.8791536 10:4.8765011 11:1.406651 12:-0.42256705 13:0.41832847 14:-0.75433865 15:-1.738516 16:-1.0596045 17:0.28875039 18:1.3454202 
1 1:0.66769783 2:0.69630466 3:0.2209818 4:0.35667963 5:0.74163938 6:0.94599818 7:0.11501321 8:-0.13327137 9:2.1730012 10:-1.4949386 11:-3.6250161 12:0.13602958 13:0.019774639 14:-0.49208104 15:0.0091830376 16:0.33166653 17:0.55466216 18:0.43485993 
1 1:0.84011554 2:0.89157557 3:0.8887546 4:-0.19143326 5:-0.5880562 6:-0.58348406 7:-0.014077222 8:-0.32867698 9:-1.0961358 10:3.6430099 11:-0.096900679 12:-0.4963691 13:-0.37490599 14:-0.15424681 15:0.72914868 16:0.17344449 17:-0.43561965 18:-0.53568133 
1 1:0.0065804996 2:0.010844718 3:0.00043368499 4:0.15930806 5:0.90041512 6:0.22061613 7:-0.073640698 8:-0.070680988 9:-0.57616217 10:-2.2169348 11:-0.55127143 12:0.2553225 13:0.3780648 14:0.50255898 15:0.72609678 16:0.76124552 17:0.42717771 18:0.18507776 
1 1:0.32754573 2:0.34144985 3:0.78315817 4:0.11163841 5:-0.1986585 6:-0.56220332 7:-0.31183811 8:-0.70138268 9:0.052646039 10:5.4527203 11:-0.21445514 12:-1.7622154 13:-1.7240877 14:-0.87645581 15:-0.098144743 16:0.1112486 17:-0.18810431 18:0.26655128 
1 1:-1.3825108 2:-1.405857 3:-1.7473874 4:-1.3187029 5:0.4738112 6:0.45375496 7:-0.34801831 8:-0.69169999 9:-0.3458594 10:2.9933214 11:-0.027479514 12:-1.6947106 13:-0.98594637 14:0.48001701 15:0.49120764 16:-0.39364045 17:0.88561825 18:0.14875462 
1 1:0.24244181 2:0.23631881 3:0.12918165 4:-0.054277544 5:0.072962478 6:-0.11759008 7:-0.21503148 8:-0.099415728 9:-0.71586873 10:6.1433169 11:0.43273583 12:-0.86874279 13:-1.0503806 14:-1.252918 15:-1.6726589 16:-2.4749535 17:-2.7325736 18:-0.83566837 
1 1:-0.66510177 2:-0.70923876 3:0.46271996 4:1.6878708 5:0.49669267 6:-0.33265524 7:-0.25902413 8:-0.089264846 9:-0.67722697 10:1.5233363 11:-0.64267765 12:-0.90462498 13:0.27882578 14:1.5673674 15:0.73266191 16:-0.14512483 17:-0.32328599 18:-0.78511908 
0.1564378984496869 1:-0.12357987 2:-0.13035094 3:0.20018222 4:0.4236028 5:-0.26302814 6:-0.46681058 7:-0.23093682 8:0.26640193 9:-0.1041628 10:0.89612419 11:-0.13796402 12:0.019840026 13:0.51924784 14:0.047930062 15:-0.27675584 16:-0.49988298 17:-0.21179048 18:0.34301918 
1 1:-0.31763323 2:-0.31326705 3:-0.28966057 4:-0.28274514 5:-0.32853525 6:0.34422411 7:-0.010757756 8:-0.50639516 9:0.36475933 10:-1.2049274 11:-0.77109304 12:-0.14398644 13:0.010570565 14:0.35359076 15:1.2116182 16:2.2187439 17:1.6375104 18:0.069854839 
1 1:-3.1439101 2:-3.0946333 3:-4.2378052 4:-4.3186445 5:-2.0973407 6:-1.3449957 7:-0.091223765 8:1.4416211 9:1.0568079 10:4.1611847 11:1.168386 12:-0.98775509 13:-1.9718207 14:-2.213675 15:-2.2137145 16:-0.10802885 17:1.7373755 18:1.2091491 
1 1:-0.24301664 2:-0.30413665 3:1.5816094 4:1.8549221 5:0.66858918 6:-0.50901083 7:0.1945806 8:-0.8282355 9:-1.7086508 10:5.615537 11:-0.64167343 12:-2.3008588 13:-2.6677911 14:-1.9044324 15:0.40238794 16:2.0301048 17:1.5296857 18:-0.16957187 
0.1026991253558213 1:-2.6718862 2:-2.6809698 3:-0.42240418 4:0.19218534 5:-0.16279785 6:-0.21117653 7:0.76973262 8:-0.20832069 9:-1.1740238 10:6.5538218 11:-0.71929625 12:-1.7499621 13:-1.9321021 14:-1.1286439 15:0.70922945 16:2.3526184 17:1.9057535 18:-0.0077202085 
1 1:0.19326775 2:0.24775652 3:-0.55597459 4:-1.314833 5:-1.3738555 6:0.31616853 7:-0.38087279 8:-1.9404273 9:0.4728743 10:-4.0494407 11:-3.2766758 12:-1.6458516 13:-0.75549593 14:1.7530448 15:2.5909976 16:3.7298842 17:1.7210266 18:0.88357185 
1 1:-0.67749245 2:-0.75721997 3:1.3104368 4:2.2731114 5:0.79305462 6:-0.39336327 7:-0.33751508 8:-0.70949189 9:-1.3076728 10:5.2457665 11:-0.86517819 12:-2.2977587 13:-2.6883108 14:-1.3459752 15:0.80281525 16:2.2944123 17:1.2911075 18:-0.55015545 
1 1:0.49134134 2:0.46503393 3:0.45426456 4:0.45680017 5:0.16749581 6:-0.24093527 7:0.082925307 8:-0.22144179 9:-0.48625261 10:2.5247883 11:0.29053527 12:0.066132914 13:-0.14704184 14:-0.42728706 15:-1.2917667 16:-0.46005207 17:-0.075534733 18:-0.00277133 
0.5534941069915714 1:0.15843293 2:0.13797096 3:0.78452549 4:1.0090879 5:0.81541865 6:0.40529868 7:0.69958159 8:0.44061969 9:-0.3002308 10:2.1327671 11:0.41276989 12:-0.35025032 13:-0.37166865 14:-0.45087053 15:-0.29331266 16:0.050160498 17:0.051187579 18:-0.31641543 
1 1:-0.32536879 2:-0.31433745 3:-0.29998239 4:-0.27172742 5:-0.19943142 6:-0.068209383 7:0.30673869 8:-0.19517077 9:-0.60698602 10:1.2295577 11:-1.3901212 12:-0.24973129 13:-0.11624425 14:-0.044228408 15:0.33013487 16:1.0944801 17:1.9326969 18:1.2513052 
1 1:-0.36850927 2:-0.35959561 3:-0.25804164 4:-0.22063135 5:-0.31803343 6:0.26236254 7:0.10181797 8:-0.39801785 9:0.30998088 10:-1.1162647 11:-0.69838027 12:-0.1411555 13:-0.025621229 14:0.25657728 15:0.98877806 16:2.0084132 17:1.822891 18:0.26412261 
0.5431549570288171 1:1.701875 2:1.7252779 3:2.5447517 4:1.4858541 5:0.38553367 6:-0.30254265 7:0.46986271 8:-0.59987345 9:-1.6753347 10:5.4354902 11:-0.68743496 12:-2.3009144 13:-2.2760134 14:-0.95940557 15:1.4718398 16:2.7344986 17:1.7943626 18:-0.015765113 
1 1:0.50717472 2:0.51561606 3:0.75775147 4:0.55390664 5:0.42028479 6:-0.052661726 7:0.16052424 8:0.24844671 9:-0.51711052 10:6.3052945 11:0.45094805 12:-0.29121777 13:-0.43708789 14:-0.75717205 15:-0.98874154 16:-1.5542069 17:-2.4686829 18:-0.95983418 
1 1:2.1055141 2:2.1130247 3:2.4864835 4:1.924679 5:1.5826517 6:0.78280141 7:0.74354822 8:-0.016455029 9:-0.79083526 10:1.4671249 11:-0.12444524 12:-0.80404971 13:-0.97731601 14:-0.86971099 15:-0.48761234 16:-0.048826623 17:-0.33252573 18:-0.61547782 
0.9486933932468961 1:2.5608936 2:3.0696796 3:2.0507451 4:-0.36523593 5:-0.57870739 6:-0.68663182 7:-0.71583608 8:-0.13778768 9:-0.23881295 10:0.56499669 11:-0.66174536 12:-0.37385956 13:-0.22762911 14:0.26189832 15:0.33070775 16:0.2525842 17:0.1400826 18:-0.078208713 
1 1:0.21146182 2:0.20498065 3:0.094659465 4:0.18794831 5:0.50318305 6:0.71613859 7:0.16864584 8:-0.18910863 9:1.9370062 10:-1.5835122 11:-4.0175042 12:0.073197508 13:0.24921184 14:-0.10815796 15:0.35459486 16:0.97355998 17:0.49284121 18:0.40462662 
0.8728714004127972 1:0.096591349 2:0.082930305 3:-0.1138066 4:0.14685811 5:0.33685576 6:-0.68772352 7:-0.70862868 8:-0.48881793 9:-0.22498272 10:10.466018 11:5.5952051 12:-3.8235996 13:-2.7736438 14:-3.2334944 15:-3.2847618 16:-2.0344179 17:-0.31985236 18:0.87950368 
1 1:-0.21832772 2:-0.22365459 3:-0.25970617 4:-0.35713076 5:-0.6843122 6:-0.47789242 7:-0.29493167 8:-0.35335886 9:0.06936712 10:-1.7790609 11:0.080036076 12:-0.57831566 13:-0.02651917 14:1.5800646 15:1.8025631 16:0.45559087 17:-0.06516604 18:-0.23819563 
1 1:2.0466107 2:2.0597324 3:1.823921 4:1.5017988 5:1.8604507 6:1.9380363 7:0.82253114 8:0.80322934 9:0.087374271 10:-1.0908086 11:0.015214883 12:0.21584638 13:0.45677101 14:0.55852204 15:0.83582573 16:0.59742767 17:0.18172475 18:0.1275951 
1 1:0.58467184 2:0.60817009 3:0.57596645 4:0.20812099 5:0.16060302 6:0.12788198 7:0.53112139 8:0.20159483 9:-0.25129529 10:1.4876795 11:-0.88506042 12:-0.37499988 13:-0.59842911 14:-0.6189252 15:-0.7394574 16:-0.25824632 17:0.43762416 18:0.43121758 
0.469163037305413 1:-0.14356942 2:-0.19083815 3:0.2814748 4:0.85889395 5:1.0254465 6:0.96727506 7:0.69790648 8:0.61957662 9:0.054262794 10:3.4992458 11:0.31050378 12:-0.71677279 13:-1.0558272 14:-0.84370775 15:-0.44560349 16:0.06936471 17:-0.0041639341 18:0.12336226 
1 1:-0.3861705 2:-0.38294135 3:-0.56909923 4:-0.39164253 5:-0.26367319 6:0.062505055 7:0.30071896 8:0.18624549 9:-0.0090939877 10:1.1958082 11:0.2013766 12:0.14030538 13:0.18988067 14:-0.096026558 15:-0.59303434 16:-0.71579961 17:-0.40870533 18:0.26363475 
1 1:0.33853323 2:0.34731942 3:0.48365789 4:0.86050362 5:1.0524737 6:0.89375215 7:0.74504256 8:0.91233171 9:0.9860371 10:-2.0224322 11:-0.70963425 12:0.41528424 13:0.28206378 14:0.37167746 15:0.60962927 16:0.88503466 17:0.72089022 18:0.094432705 
1 1:-5.7926083 2:-5.9364552 3:-3.1531288 4:2.4940716 5:5.7259971 6:3.431776 7:4.1675494 8:3.6764416 9:2.0578468 10:4.3750976 11:1.9301226 12:0.60818768 13:-0.79666367 14:-2.2595367 15:-2.9530513 16:-1.7079361 17:-1.6378217 18:-1.4717301 
0.4717598309573668 1:-1.3989291 2:-1.3636227 3:-2.117845 4:-1.9259275 5:-0.30152597 6:-0.091518532 7:0.28650511 8:0.5873666 9:-0.174995 10:6.2230126 11:0.74520869 12:-0.23320125 13:-0.52366975 14:-0.99788388 15:-1.6798734 16:-1.4927509 17:-0.30614443 18:-0.035164289 
1 1:-0.028234366 2:-0.027674257 3:-0.015184512 4:-0.0092036466 5:0.47365308 6:0.60532312 7:-0.12709004 8:-0.10154244 9:-0.16680001 10:-1.9218387 11:-0.61017303 12:0.13170659 13:0.24915305 14:0.44530071 15:0.69697055 16:0.56618625 17:0.23190953 18:0.14337078 
1 1:-3.5209084 2:-3.5264609 3:-5.1322059 4:-4.3304744 5:-1.9177927 6:-1.6148278 7:-1.3926298 8:-1.9543197 9:-1.3665432 10:4.6968875 11:0.38335583 12:-2.6970736 13:-1.6294548 14:-3.3695683 15:-3.8518711 16:-2.1960995 17:1.1883958 18:2.8378076 
1 1:1.2401013 2:1.2268708 3:2.1665334 4:2.003361 5:0.38212729 6:-0.42181071 7:-0.5610807 8:-0.50491921 9:-0.73313596 10:2.1168166 11:0.066576949 12:-0.45264085 13:-0.4255443 14:-0.24649225 15:0.23341938 16:0.36814312 17:-0.14691318 18:-0.21894147 
1 1:0.53827148 2:0.51557696 3:-0.19371141 4:-0.099986879 5:0.016880068 6:0.24478671 7:1.0421754 8:-0.021853364 9:-1.0252712 10:0.99141375 11:-3.1438358 12:-2.3537249 13:-0.24221744 14:1.1859622 15:2.524058 16:2.1722837 17:0.50466192 18:0.44276308 
1 1:0.52932964 2:0.53342259 3:0.41154873 4:0.17925007 5:-0.064854071 6:0.087306526 7:-0.078595649 8:-0.47728431 9:-0.07660148 10:6.2818141 11:-1.0475169 12:-0.7411705 13:-0.8903282 14:-0.72219949 15:-0.14069843 16:0.27090262 17:-0.17399264 18:-0.3515555 
0.1119732534909826 1:-0.63920404 2:-0.69323093 3:-1.1850656 4:-0.10088797 5:1.0231927 6:1.3875317 7:1.9156763 8:0.808984 9:-1.6777255 10:1.4308499 11:-0.59503232 12:-0.52309924 13:-0.76736895 14:-1.7517207 15:-1.5029625 16:-1.1821751 17:-3.3847236 18:0.65986579 
1 1:0.81982691 2:0.83274248 3:0.71690047 4:0.31876567 5:-0.20121236 6:-0.6426934 7:-0.90199034 8:-0.8355911 9:-1.2917034 10:4.9791126 11:0.57505153 12:-0.36540994 13:-0.40089863 14:-0.44472088 15:-0.1721236 16:0.94368504 17:0.51152328 18:-0.61260333 
1 1:-0.12685586 2:-0.13145504 3:-0.11692243 4:-0.15348942 5:-0.28650162 6:-0.16977282 7:-0.12267411 8:-0.11400704 9:-0.18688126 10:0.87546614 11:-0.90279728 12:-0.67781536 13:-0.20324601 14:-0.061481071 15:0.1286408 16:0.76380717 17:1.2228944 18:0.32130418 
1 1:-0.77309869 2:-0.76742879 3:-0.82819738 4:-0.7979177 5:-0.71930944 6:-0.72577243 7:-0.42079385 8:0.41446342 9:-1.0288715 10:4.2391948 11:-0.46845952 12:-0.8378666 13:-0.77010383 14:-0.47292589 15:0.48295099 16:2.3996125 17:2.1651332 18:0.35553719 
1 1:1.2800061 2:1.3151269 3:0.29926096 4:-0.33921511 5:-0.34229451 6:-0.51095618 7:0.0018497542 8:-0.39838782 9:-1.3231063 10:3.889292 11:-0.2177864 12:-0.950394 13:-0.87037794 14:-0.53037012 15:0.31346242 16:-0.075609678 17:-0.82617875 18:-0.70708635 
1 1:-3.356576 2:-3.3097825 3:-4.5315185 4:-6.3901677 5:-6.2791702 6:-2.4077565 7:-0.066110914 8:-0.45073573 9:-1.5654748 10:6.1204638 11:-0.42888797 12:-2.0893252 13:-2.4874196 14:-0.9685193 15:2.1559048 16:2.470262 17:0.73124064 18:-0.39187403 
1 1:-0.063605622 2:-0.047042827 3:-0.1250151 4:-0.0042993013 5:-0.10769087 6:-0.37149911 7:-0.1112404 8:-0.075130922 9:-0.69927824 10:6.1569562 11:0.41183995 12:-0.61980917 13:-0.88835107 14:-1.4740605 15:-2.0211436 16:-2.805058 17:-2.2792187 18:-0.41024988 
1 1:-1.88084 2:-1.6951197 3:2.2555334 4:-0.55937666 5:-1.0812485 6:-1.1168462 7:-0.62573178 8:0.5696938 9:0.18363031 10:2.7829332 11:0.36123275 12:-1.0183574 13:-0.95495724 14:-0.3403388 15:0.16776632 16:0.18573912 17:0.1652351 18:0.03411892 
1 1:1.1730076 2:0.99551309 3:1.2303493 4:0.11320518 5:-1.8370104 6:-1.7689987 7:-1.2774919 8:-0.39325062 9:-2.157389 10:2.9709863 11:0.37702141 12:0.073463172 13:-0.78833814 14:-0.011505046 15:0.54336749 16:0.22041395 17:-0.22175163 18:-0.47502724 
1 1:-0.052576788 2:-0.055013385 3:-0.82660585 4:-0.92899717 5:-1.2390249 6:-1.3099634 7:-0.23808783 8:-0.37586457 9:-0.74303015 10:4.7477383 11:0.30653841 12:-0.76693976 13:-1.0000046 14:-1.5470031 15:-1.2750052 16:-0.16911508 17:-0.077478907 18:-0.044788999 
0.1680687665079502 1:2.4571118 2:2.948625 3:0.9132024 4:-1.2414731 5:-1.1310176 6:-0.24906116 7:0.59755275 8:0.53667965 9:-0.40693793 10:2.018286 11:-0.14411178 12:-1.1533318 13:-0.34181672 14:0.91037037 15:0.35348887 16:-0.95849859 17:1.5348259 18:-1.2783366 
0.6280607489363387 1:-1.2677751 2:-1.3210678 3:-0.42193064 4:0.049566567 5:-0.63158791 6:-0.69719879 7:-0.45649675 8:0.18363223 9:-0.39736244 10:1.2330308 11:-0.15449802 12:0.48766345 13:0.28248936 14:0.024487825 15:-0.2043011 16:-0.17949445 17:0.11566422 18:-0.29886513 
0.01697836183948851 1:-2.0605075 2:-2.1937877 3:-2.1256221 4:-1.3994257 5:-0.83638146 6:-0.16535926 7:-0.76673665 8:-0.097576085 9:-0.23111888 10:4.5472123 11:1.307887 12:-1.5411802 13:-1.4221283 14:-1.0905257 15:-0.29031269 16:-0.13668378 17:-0.075332871 18:-0.0073170025 
1 1:0.33896671 2:0.31805209 3:2.1437417 4:2.0114495 5:0.37569827 6:-0.39414509 7:0.49699299 8:-0.70726061 9:-1.6144404 10:5.4588907 11:-0.90392947 12:-2.2184947 13:-2.6183128 14:-1.8773661 15:0.20005423 16:1.7551479 17:1.1714859 18:-0.37886822 
1 1:-0.54346949 2:-0.59759016 3:1.4410771 4:3.0897528 5:1.7654807 6:-0.22736607 7:-0.61122202 8:-0.86995838 9:-1.4102809 10:4.8666755 11:-1.3767892 12:-1.9816773 13:-1.843251 14:-0.6597744 15:1.3735814 16:2.3665672 17:1.041901 18:-0.57155157 
0.7164014464565572 1:-0.25322642 2:-0.23564659 3:0.092462124 4:0.2629666 5:0.46468822 6:0.37208346 7:0.38339377 8:0.42194237 9:-0.20191184 10:2.8764007 11:-3.3033956 12:-1.0169573 13:0.41239687 14:0.018489881 15:-0.28193131 16:0.16676816 17:0.43216256 18:0.30914219 
1 1:-0.23147001 2:-0.22095911 3:-0.17677507 4:-0.035720418 5:-0.02227373 6:0.43424017 7:0.43781942 8:-0.15794014 9:-0.36435093 10:0.89837455 11:-0.3814997 12:-0.80217791 13:-0.14806696 14:-0.17723731 15:-0.094590361 16:0.14220639 17:0.36772564 18:0.45898799 
1 1:-0.061233603 2:-0.07346803 3:0.20550446 4:0.20918105 5:0.070178044 6:-0.22228558 7:-0.02142348 8:-0.050446651 9:0.37154732 10:6.2089075 11:0.91104117 12:-1.9806166 13:-2.0332131 14:-2.12724 15:-1.3595368 16:-0.42149747 17:-0.049402488 18:-0.067007123 
1 1:0.9926893 2:1.279105 3:4.2168027 4:-1.37003 5:-1.7077399 6:-1.3236324 7:-0.24817219 8:0.074651615 9:-0.12772776 10:4.6905469 11:0.71265992 12:-1.7362516 13:-1.9538966 14:-1.0868967 15:-0.069445476 16:-0.088765262 17:3.5456597 18:1.2464757 
1 1:0.078313635 2:0.075879333 3:0.11370975 4:0.089351314 5:0.63882175 6:0.58215701 7:-0.056119244 8:-0.074693439 9:-0.12880498 10:-1.9782258 11:-0.58343589 12:0.10224776 13:0.22857833 14:0.36812665 15:0.56703308 16:0.4990536 17:0.23411218 18:0.060019497 
1 1:-0.25753955 2:-0.2737215 3:-0.13366006 4:-0.15286931 5:0.027488715 6:0.33404447 7:-0.035720359 8:0.19870143 9:-0.058239619 10:0.95107864 11:-0.65731436 12:-0.2865617 13:0.28218027 14:-0.06628512 15:0.0031758547 16:0.6023738 17:0.53492745 18:-0.15836166 
1 1:0.41463122 2:0.39294699 3:0.62107703 4:0.51002751 5:0.52883461 6:0.72657487 7:0.54239363 8:0.27864426 9:0.61948791 10:2.8361815 11:0.55299531 12:-0.14792257 13:-0.035308585 14:-0.0050085326 15:-0.29846654 16:-0.34635782 17:-0.064446424 18:0.56129746 
1 1:-0.060163939 2:-0.057698438 3:-0.1259737 4:-0.29143135 5:-0.51408266 6:-0.34734947 7:0.15765713 8:-0.33167785 9:-0.1580149 10:6.920992 11:-0.043376181 12:-0.77913447 13:-0.97252068 14:-1.2670486 15:-1.2711658 16:-0.5257106 17:0.1800312 18:0.095653031 
1 1:0.016078186 2:0.016304827 3:-0.063591767 4:-0.038832207 5:0.053332673 6:0.011275347 7:-0.26244855 8:-0.31726553 9:-0.2654467 10:5.8551188 11:2.5048178 12:-0.033283449 13:-0.97681076 14:-1.2270252 15:-1.4568301 16:-1.8580148 17:-1.6326561 18:-0.3471736 
1 1:-0.90146304 2:-0.90599564 3:-0.60486138 4:-0.33383891 5:0.017910063 6:0.050170804 7:0.57201882 8:0.70700482 9:2.8112792 10:5.6531297 11:1.152047 12:-1.8452728 13:-1.7749731 14:-0.54082376 15:-0.67462327 16:0.092649034 17:0.089727334 18:-0.56297858 
1 1:-0.22788294 2:-0.23834937 3:-0.10871417 4:0.026287231 5:-0.29456089 6:-0.45043167 7:-0.54014056 8:-0.033546704 9:0.114544 10:-1.1093106 11:-0.64662075 12:-0.23824768 13:0.29411395 14:0.95713919 15:1.4910951 16:0.64742258 17:-0.15675584 18:-0.17742711 
1 1:1.3309083 2:1.3004491 3:-0.00346212 4:-2.1755663 5:-6.4718669 6:-4.719213 7:-1.9917807 8:-1.0593366 9:-1.7287935 10:2.6411636 11:-0.30919001 12:-0.79236327 13:2.2426062 14:3.593017 15:3.4405131 16:3.0659732 17:-0.082445731 18:-3.5815924 
0.8287981077736578 1:0.10148601 2:0.089954685 3:0.072442405 4:-0.0049234061 5:0.30899149 6:-0.105361 7:-0.44432029 8:-0.32056811 9:-0.39905326 10:1.6153336 11:0.55921072 12:-0.075775312 13:-0.35587548 14:-0.51840295 15:-0.71696906 16:-0.72026215 17:-0.38146095 18:-0.12084355 
1 1:-0.29981797 2:-0.29764358 3:-0.28470395 4:-0.23607689 5:-0.25525303 6:0.32230323 7:-0.039750635 8:-0.4381699 9:0.54517888 10:-1.1491851 11:-0.7912594 12:-0.12088588 13:0.031918877 14:0.29460117 15:1.0425549 16:1.8786016 17:1.7103264 18:0.24711088 
1 1:0.57678759 2:0.57526819 3:0.46250799 4:0.34021298 5:0.26581569 6:0.33485364 7:0.59160089 8:0.20468232 9:-0.2283961 10:1.7243943 11:-0.36878272 12:-0.40129075 13:-0.51491084 14:-0.7388415 15:-0.9795539 16:-0.85966799 17:0.088627664 18:0.46007708 
1 1:-1.0781364 2:-1.1753004 3:3.4469848 4:-3.9675072 5:-3.8849397 6:-3.9944762 7:-3.3896137 8:-2.526185 9:-1.9704198 10:3.3379067 11:-0.57080812 12:-2.2402144 13:-2.055854 14:-0.66643876 15:0.26615879 16:0.078910339 17:0.14688144 18:-3.1050145 
1 1:-0.3690305 2:-0.36799998 3:-0.30494495 4:-0.26658404 5:-0.28911515 6:-0.17591124 7:0.23972086 8:-0.22327652 9:-0.59470006 10:1.3063849 11:-1.207188 12:-0.30390389 13:-0.19174135 14:-0.035726898 15:0.35466985 16:1.3599561 17:2.0755056 18:0.85044575 
1 1:0.25285131 2:0.24823832 3:0.061599281 4:-0.1070778 5:-0.41557408 6:-0.39116532 7:-0.29989383 8:-0.20485871 9:-0.081492328 10:-3.9652531 11:-1.8726357 12:0.58928091 13:1.1208226 14:1.7371588 15:2.1249475 16:2.0193939 17:1.6195133 18:1.0530965 
1 1:-0.27547654 2:-0.27755141 3:-0.29589018 4:-0.14768894 5:0.051662076 6:0.034651258 7:-0.24671378 8:-0.40995652 9:0.25303245 10:6.6746826 11:2.5652007 12:-0.087458969 13:-1.0702196 14:-1.3552686 15:-1.5920627 16:-2.0047499 17:-1.8728384 18:-0.56465515 
0.7028559882019887 1:-1.2175901 2:-1.2110339 3:-1.1232933 4:-0.92287544 5:-0.21783686 6:-0.21914874 7:-0.68698402 8:-0.62378485 9:-0.40052869 10:-1.2259138 11:-0.47849914 12:-0.28260389 13:-0.10437457 14:0.10633672 15:0.36257591 16:0.32487212 17:0.10451931 18:-0.078063838 
1 1:-0.26379259 2:-0.26746021 3:-0.31719038 4:-0.28508643 5:-0.3241266 6:0.29900463 7:0.021907055 8:-0.45397703 9:0.46721317 10:-1.4579315 11:-0.76559442 12:-0.16620703 13:-0.081374536 14:0.26532044 15:1.1166131 16:2.0339992 17:1.7029674 18:0.13213243 
1 1:-1.565264 2:-1.5391602 3:-1.8324289 4:-2.2787627 5:-0.80531071 6:-0.15009551 7:0.31464633 8:0.50857903 9:-0.41543011 10:6.3941083 11:0.54740789 12:-0.49434013 13:-0.61446892 14:-0.77659879 15:-1.549165 16:-1.6345378 17:-0.096012844 18:0.28806104 
1 1:1.7658378 2:1.8102755 3:0.63446691 4:-0.51298387 5:-0.6335969 6:-0.7874043 7:-0.47695088 8:-0.56189569 9:-1.0983805 10:2.9935158 11:0.1362409 12:-0.55103806 13:-0.57601414 14:-0.20660482 15:0.51212342 16:0.23281501 17:-0.61203991 18:-0.66846449 
1 1:-0.13173846 2:-0.11428221 3:0.10222228 4:0.071633825 5:0.29168468 6:0.79023673 7:0.49402201 8:0.132992 9:0.044838128 10:1.1070731 11:-0.15704872 12:-0.43699359 13:0.033130897 14:-0.19404007 15:-0.049083644 16:-0.022596896 17:0.23025221 18:0.20789486 
0.1006502238140818 1:1.8616466 2:1.8839518 3:0.54007334 4:-0.23562519 5:-0.077896363 6:-0.2506965 7:0.38786299 8:-0.86571481 9:-1.6238308 10:1.690978 11:-2.5038505 12:-1.5617385 13:0.08862059 14:0.31615835 15:2.2336146 16:1.4128693 17:0.02894801 18:-0.48882374 
1 1:-0.30374952 2:-0.28784562 3:-0.16896449 4:-0.21972313 5:-0.23054462 6:-0.17522802 7:-0.13143884 8:-0.09960422 9:-0.22700838 10:1.0975146 11:-0.87664506 12:-0.61289067 13:-0.096780786 14:-0.084230593 15:0.030894706 16:0.66914933 17:0.82908177 18:0.17700322 
1 1:-1.0762866 2:-1.0751828 3:-1.6554432 4:-2.0157543 5:-2.3891422 6:-1.9312232 7:-0.49205465 8:-0.40338578 9:-0.78915885 10:3.4399173 11:0.11674055 12:-0.27548128 13:-0.18112538 14:0.082617221 15:0.91972085 16:1.1365031 17:-0.162716 18:-0.41329203 
1 1:-0.60347862 2:-0.59503957 3:-0.32776041 4:-0.05587178 5:0.61602577 6:0.53760832 7:0.1629183 8:0.20310405 9:0.53380979 10:-0.27712059 11:-1.1452653 12:-0.50742444 13:-0.12084649 14:0.15938174 15:0.79882314 16:1.5524742 17:0.96475791 18:0.12963538 
1 1:-0.340741 2:-0.30994876 3:-0.18894094 4:-0.24099553 5:-0.23979638 6:-0.10786877 7:0.38248916 8:-0.13022905 9:-0.62344317 10:1.1695819 11:-1.2565125 12:-0.20076209 13:-0.095120395 14:-0.032803067 15:0.24798345 16:1.0238523 17:1.8225934 18:1.3014607 
1 1:0.34098924 2:0.30981041 3:0.16527355 4:0.29981359 5:0.42154077 6:1.0409195 7:1.3806308 8:0.86300498 9:0.2986639 10:4.7944255 11:-3.8436711 12:-2.4656516 13:-0.094168099 14:0.41492232 15:0.10185551 16:0.74861951 17:0.9507261 18:1.0636168 
1 1:-0.29753205 2:-0.32411343 3:0.076735279 4:0.46669997 5:0.44637018 6:-0.26746136 7:-0.48168459 8:-0.57854692 9:0.70491379 10:1.4792274 11:0.13517747 12:-0.69333468 13:-0.67805529 14:-0.47440949 15:-0.14282079 16:0.47669838 17:0.46014318 18:1.0619615 
1 1:-0.5649812 2:-0.55757239 3:-0.82625363 4:-1.1070102 5:-1.1772979 6:-0.59828176 7:-0.2083229 8:-0.14412872 9:-0.47691465 10:3.6556609 11:0.52537722 12:-0.64161361 13:-0.86549998 14:-1.0278255 15:-0.85461887 16:-0.28486281 17:-0.064576529 18:-0.066022112 
0.3546662070021397 1:-0.56601206 2:-0.57399617 3:-0.4923316 4:-0.050042468 5:1.1840825 6:2.8411252 7:2.7206481 8:-0.39516491 9:-1.7685093 10:3.5619243 11:-1.5663209 12:-0.93265366 13:-0.73807421 14:-0.4604254 15:0.90404861 16:2.3576671 17:-0.25618505 18:-0.76110788 
1 1:0.88360792 2:0.88662102 3:1.1239763 4:1.0795753 5:1.4015706 6:1.0680853 7:0.28231976 8:-1.3920869 9:-1.2007542 10:3.4794412 11:0.91469314 12:0.17982878 13:-0.62412973 14:-0.5509418 15:-0.52933701 16:-1.1802388 17:-4.2311568 18:-4.4568644 
1 1:-1.165561 2:-1.2041612 3:-1.3047328 4:-1.1159094 5:-1.0212571 6:-0.64459334 7:-0.2087517 8:-0.64101341 9:-1.0680221 10:1.1256379 11:-1.4783865 12:-0.44634424 13:-0.33278894 14:-0.087136426 15:0.39178885 16:1.3160197 17:2.5832576 18:1.5481289 
1 1:-1.4062745 2:-1.3726928 3:-2.372493 4:-2.4246539 5:-2.2047633 6:-1.211729 7:-0.63701407 8:-0.70212259 9:-0.092871373 10:4.3902261 11:0.13316073 12:-1.6229277 13:-0.87323468 14:0.044824032 15:0.39933269 16:0.37188035 17:0.45073304 18:0.05830804 
0.3109059412404245 1:-0.77193686 2:-0.77392478 3:-0.76155779 4:-0.8296152 5:-0.99562845 6:-1.3345302 7:-0.73106733 8:-1.2811473 9:-2.6746016 10:8.4470511 11:-0.50284109 12:-1.7667869 13:-1.4387705 14:-0.67961299 15:1.276379 16:1.5357437 17:-1.0404181 18:-1.7746065 
1 1:0.62804755 2:0.59995792 3:0.16832555 4:0.13448968 5:-0.018360991 6:0.26955691 7:0.11476771 8:-0.61012178 9:-0.86928486 10:-0.83130372 11:-1.0627493 12:-0.83693855 13:0.026032989 14:0.81360466 15:0.83917504 16:0.07283224 17:0.21606668 18:0.35291471 
1 1:0.38097361 2:0.36569997 3:0.2997997 4:0.20343528 5:0.0041996413 6:-0.21706798 7:-0.084578258 8:-0.020999016 9:0.0058151315 10:4.9828588 11:0.044427926 12:-1.5841795 13:-1.6996477 14:-1.3158948 15:-0.25799809 16:-0.20532813 17:-0.71495485 18:-0.81404281 
1 1:0.12053688 2:0.13439648 3:-0.11546347 4:-0.71484773 5:0.41534585 6:0.50173555 7:0.3986748 8:0.35855434 9:-0.46868363 10:1.3124291 11:0.97430221 12:0.74830858 13:0.48751707 14:0.22781849 15:-0.39154795 16:0.23011602 17:-0.26564891 18:-0.55168279 
1 1:-0.5200067 2:-0.53289175 3:-0.20738502 4:0.38069285 5:0.19498587 6:0.049278048 7:0.50656771 8:-0.42927735 9:-0.83274613 10:3.4594528 11:1.2509452 12:-0.88765354 13:-0.71090474 14:-1.4808127 15:-1.7681866 16:0.016687026 17:0.061460243 18:-0.53922293 
1 1:0.81944636 2:0.81023919 3:0.63898742 4:0.53661375 5:0.42961092 6:0.29768943 7:0.12057207 8:0.084168595 9:-0.072342067 10:5.221677 11:1.2349947 12:-1.4827736 13:-1.8341884 14:-1.2725291 15:0.021393822 16:0.28923832 17:-0.65753566 18:-1.0344883 
1 1:0.12403643 2:0.12270152 3:0.089681641 4:-0.12311212 5:-0.27674153 6:-0.16148306 7:-0.11143467 8:-0.057609764 9:0.10095791 10:-3.4102106 11:-1.9633491 12:0.16957181 13:0.39992817 14:0.73983867 15:1.0958558 16:1.2697076 17:1.3009263 18:0.82211614 
1 1:1.1815859 2:1.1722058 3:1.6256182 4:1.4107357 5:0.74581113 6:0.25549143 7:-0.10407301 8:-0.26429106 9:-0.2407242 10:-3.2773019 11:-1.8166705 12:-0.10887708 13:0.67839549 14:1.4077241 15:1.650481 16:1.1382403 17:0.55246607 18:0.12238231 
1 1:0.16230057 2:0.19000813 3:-0.001836829 4:-0.34741433 5:-0.5713106 6:-0.27830214 7:-0.42542441 8:-0.50651075 9:0.57848397 10:4.8845119 11:-0.87869641 12:-0.75779454 13:-1.1310296 14:-1.2868431 15:-0.3359074 16:0.31508111 17:-0.27612807 18:-0.25789885 
1 1:-0.05181204 2:-0.061637903 3:-0.27280568 4:-0.45203527 5:-0.52539683 6:-0.29342413 7:-0.21258974 8:-0.11842216 9:0.53017835 10:6.16254 11:-0.99802595 12:-0.89748604 13:-1.0242913 14:-1.0298655 15:-0.59797985 16:-0.20158731 17:-0.12731537 18:-0.38053 
1 1:0.81016424 2:0.76496632 3:1.2518076 4:0.7976675 5:0.24443446 6:-0.56865857 7:-0.23697398 8:-0.3333262 9:0.047750087 10:4.2709219 11:0.15042847 12:-1.4707663 13:-1.2957152 14:-0.51629372 15:0.6820938 16:-0.26385432 17:-1.050132 18:-0.85477645 
1 1:-0.76045177 2:-0.8459778 3:-0.90941132 4:-0.79054064 5:-1.489334 6:-0.81231045 7:0.35465982 8:-0.12858945 9:0.19449322 10:4.9834139 11:2.0463551 12:-0.4641014 13:-0.86481313 14:-0.87365837 15:-0.11016914 16:1.1643321 17:0.5900031 18:-0.39229296 
1 1:0.092965244 2:0.096739263 3:0.081632736 4:-0.31249384 5:-0.77653896 6:-0.31601847 7:-0.41383203 8:-0.39483002 9:-1.0394575 10:0.37396934 11:-0.090824853 12:-0.119593 13:-0.16186952 14:-0.40533038 15:-1.0830415 16:-0.45521076 17:-0.019060046 18:-0.29491592 
1 1:-0.23774147 2:-0.24555497 3:-0.25044927 4:-0.099037882 5:-0.061354338 6:0.035961385 7:-0.17313967 8:-0.48409701 9:0.63606946 10:6.2120302 11:1.6890426 12:-0.44519147 13:-1.1287663 14:-1.3437862 15:-1.5363984 16:-1.4268127 17:-0.35013938 18:-0.056983978 
1 1:0.7376428 2:0.86490139 3:1.7615191 4:-1.080493 5:-1.4943023 6:-1.4053167 7:-0.73414454 8:0.26323476 9:0.52619651 10:3.5765802 11:0.23234895 12:-1.6289827 13:-0.78161435 14:0.80759224 15:0.88694175 16:-0.32460051 17:-0.28759934 18:-0.23596305 
1 1:2.138382 2:2.1672049 3:2.2327138 4:1.5903828 5:0.95111429 6:-0.35282659 7:-0.40158754 8:0.3030808 9:0.62790162 10:6.899154 11:2.308902 12:-2.6189975 13:-1.5752978 14:-2.1845858 15:-2.3027912 16:-1.1287414 17:0.26278678 18:1.1097473 
1 1:7.813298 2:7.9378192 3:7.9019202 4:4.2810112 5:0.35175101 6:-1.1911864 7:-1.2131525 8:-0.99298177 9:-1.0941308 10:4.835212 11:0.28619057 12:-2.4344655 13:-2.6474506 14:-2.4099772 15:-1.2640579 16:-0.42670393 17:-0.16219288 18:-0.31260983 
1 1:0.17207407 2:0.13614779 3:2.1366617 4:2.2963893 5:0.94546497 6:-0.13347859 7:0.95241086 8:-0.13256124 9:-1.0797464 10:5.601533 11:-1.1334382 12:-2.0806255 13:-2.2059536 14:-1.386975 15:0.4648088 16:1.8186762 17:0.9538379 18:-0.33368286 
0.3860706619570598 1:2.5701488 2:2.6155029 3:2.7079516 4:1.3527474 5:-0.31784244 6:-0.92071864 7:0.26877094 8:-0.67101757 9:-1.6810923 10:5.6646272 11:-1.251143 12:-2.1986711 13:-2.1890775 14:-1.4327974 15:0.036377744 16:1.4506994 17:0.75326856 18:-0.49173103 
1 1:0.84054227 2:0.88959115 3:1.1165884 4:0.020492627 5:-0.27151128 6:-0.30302583 7:0.50703908 8:-0.2905503 9:-1.4865946 10:2.613164 11:0.067173551 12:-1.21335 13:-0.26929908 14:-2.1658546 15:-2.1131185 16:0.40716214 17:0.52445481 18:-0.21645004 
1 1:0.12065559 2:0.11691637 3:0.14028322 4:0.22393864 5:0.21234941 6:0.122867 7:0.1658055 8:-0.019188257 9:0.046569803 10:3.5081605 11:0.94921634 12:0.13333937 13:-0.09499713 14:-0.3365726 15:-0.47691948 16:-0.48008361 17:-0.9510037 18:-1.2847576 
0.9962820252625945 1:-0.28188124 2:-0.29812721 3:0.65716433 4:1.2281298 5:1.2414618 6:1.2982879 7:1.8461033 8:1.3912697 9:0.38539644 10:3.8452908 11:-0.62940725 12:-2.4549305 13:-2.3504665 14:-2.26775 15:-2.3881913 16:-1.1330449 17:-0.32365591 18:-0.64548576 
1 1:0.73913083 2:0.73895655 3:-0.3355175 4:-0.81656045 5:-0.79351386 6:-0.4505227 7:0.39068567 8:0.19651744 9:1.002837 10:1.7490348 11:0.32475824 12:-0.91719411 13:-0.97670443 14:-0.65800306 15:-0.32282141 16:0.24374426 17:-0.063770586 18:-0.09011316 
1 1:-1.4833028 2:-1.5463754 3:-0.57284141 4:1.2589168 5:1.4530252 6:0.11650274 7:-0.094685465 8:-0.81769242 9:0.11621524 10:4.0801543 11:1.2830602 12:0.45606724 13:-0.13286937 14:-1.3025757 15:-0.77425148 16:-1.1675407 17:-2.466532 18:-2.0499933 
1 1:1.5657569 2:1.5903426 3:1.7823055 4:1.01467 5:0.33327391 6:0.16568568 7:-0.052031168 8:-0.13321776 9:-0.090882346 10:-3.422805 11:-1.8849225 12:0.067614143 13:0.82055355 14:1.6433655 15:1.6275262 16:0.75722016 17:0.20081755 18:0.038719363 
1 1:-1.5956316 2:-1.6023626 3:-1.7139855 4:-1.6708118 5:-1.6783935 6:-1.7396444 7:-1.3592933 8:-1.3754096 9:-2.4751383 10:3.2800965 11:-0.60174384 12:-0.71447919 13:-0.48527653 14:-0.14220824 15:1.0069117 16:2.0812174 17:1.7677456 18:1.7680114 
0.7617589319238106 1:0.16821385 2:0.16213776 3:0.16603295 4:0.53995213 5:0.38202283 6:-0.45101244 7:-0.32427778 8:-0.26314234 9:-0.053018204 10:6.443273 11:0.8462713 12:-2.4735642 13:-1.3508197 14:-1.4648938 15:-1.5258978 16:-1.0843771 17:-0.47636053 18:0.38426208 
1 1:-0.4606974 2:-0.48658295 3:-0.35159019 4:-0.26504658 5:0.094459138 6:0.2595003 7:-0.55151465 8:-0.69216484 9:0.6374235 10:4.0694168 11:-0.60039499 12:-1.2505895 13:-1.3704482 14:-1.353466 15:-1.3781198 16:-0.84225233 17:-0.14801921 18:0.21986607 
1 1:-0.38234815 2:-0.38294147 3:-0.26118915 4:-0.1838712 5:-0.20582554 6:0.29218051 7:-0.11019512 8:-0.51039614 9:0.47810974 10:-0.79709748 11:-0.59830017 12:-0.14900551 13:-0.037919213 14:0.25968144 15:1.1094107 16:2.1403715 17:1.8405845 18:0.20157044 
1 1:0.42207153 2:0.42188424 3:0.39953546 4:0.50590887 5:0.29158104 6:-0.013060444 7:-0.16264231 8:0.13253835 9:0.93944815 10:-0.67371575 11:-0.75109319 12:-0.55388462 13:-0.16851393 14:0.59482879 15:1.1695599 16:0.3811252 17:-0.14130766 18:-0.22527434 
1 1:-5.04471 2:-5.7755931 3:-3.1813981 4:-0.63023172 5:0.31464059 6:2.1028221 7:2.0445701 8:-0.0045878316 9:-0.54406889 10:1.6209245 11:-0.65390013 12:-1.5873622 13:-0.77651855 14:0.41573085 15:-0.010792423 16:-0.2012816 17:-0.068565271 18:-0.15833807 
1 1:0.57200662 2:0.58433832 3:0.41920494 4:0.27808396 5:0.03031993 6:0.016903411 7:0.015852232 8:0.047179466 9:0.17555579 10:-3.767307 11:-1.8188688 12:-0.024531262 13:0.27687449 14:0.91755311 15:1.4529832 16:1.4596974 17:1.0279403 18:0.45181612 
1 1:0.12257833 2:0.13165605 3:0.43934719 4:0.44454164 5:0.091106899 6:-0.34608277 7:-0.38677952 8:-0.42975709 9:0.74217399 10:1.6052482 11:0.24837758 12:-0.48481372 13:-0.53043803 14:-0.33947573 15:-0.02238903 16:0.40856345 17:0.78847795 18:0.43556178 
1 1:-1.0820193 2:-1.1081497 3:-1.5376425 4:-1.4365581 5:-1.0733683 6:-0.28833707 7:-0.00081815614 8:-0.22066588 9:-0.15970471 10:4.302425 11:0.25276311 12:-1.2329916 13:-1.5483148 14:-0.8562882 15:0.15456255 16:0.05942932 17:3.8142089 18:0.11277219 
1 1:-0.22957914 2:-0.23007994 3:-0.3166319 4:-0.26141208 5:-0.071395125 6:-0.12568176 7:-0.21647284 8:-0.54467648 9:0.32370339 10:7.0180129 11:2.7870524 12:0.13598343 13:-1.1578662 14:-1.4916213 15:-1.5618814 16:-1.7416018 17:-1.497091 18:-0.26664414 
1 1:0.96873736 2:0.9763727 3:2.7448813 4:2.7767331 5:1.2165666 6:0.10880101 7:1.0533339 8:-0.18754388 9:-1.1844233 10:5.7359061 11:-1.2553222 12:-2.0811579 13:-2.1394642 14:-1.0807787 15:0.97208413 16:2.0756272 17:0.8215259 18:-0.71853186 
0.3513216726615173 1:-0.24536543 2:-0.21964754 3:-0.23688728 4:-0.36393208 5:-0.63337649 6:-0.81644238 7:-1.292465 8:-1.3177685 9:-1.3737318 10:-2.0285146 11:-0.18867015 12:-0.81694089 13:-0.95886106 14:-0.61409042 15:0.081430043 16:0.88544497 17:1.6234893 18:1.864323 
1 1:0.17480357 2:0.19679928 3:-0.15527038 4:0.35868975 5:0.76743127 6:1.0637862 7:2.2215591 8:0.80189538 9:-0.20882444 10:5.468162 11:2.2332061 12:-1.4118227 13:-3.3715691 14:-5.254487 15:-6.289503 16:-3.9872482 17:-1.9257392 18:-1.6419693 
0.1721743578059531 1:1.0779249 2:1.1141533 3:0.44653848 4:-0.30164578 5:-0.54180445 6:-0.9001844 7:-0.51184705 8:-0.87189041 9:-0.96967716 10:4.2527266 11:-3.8668497 12:-2.2744363 13:-0.43722624 14:-0.7290221 15:-1.0838126 16:-0.36452349 17:0.24914979 18:0.66948864 
0.1041138451728053 1:1.2278006 2:1.2493066 3:1.5720497 4:0.4949261 5:-0.03964901 6:-0.26538432 7:-0.18865473 8:-0.31759014 9:0.00029868657 10:-1.4386109 11:0.84616247 12:-0.3540412 13:-0.30822144 14:0.65231003 15:1.636928 16:0.69073596 17:0.11931084 18:0.33376512 
0.3052660609026068 1:1.1281108 2:1.1797856 3:0.32106179 4:-0.32211234 5:-0.2814918 6:-0.01425012 7:-0.22998299 8:-0.34033908 9:0.33014748 10:-0.75858362 11:-0.30193123 12:0.41618479 13:1.3777407 14:1.2599495 15:0.13808288 16:-0.32210146 17:-0.11280104 18:-0.25565597 
0.5919787373173496 1:-1.5379073 2:-1.5573354 3:-0.68907387 4:-0.1467336 5:-0.038879786 6:-0.041417245 7:0.6986844 8:0.29363074 9:-0.23120293 10:4.151181 11:0.91157594 12:-0.73707513 13:-0.95824948 14:-1.4635517 15:-1.7520475 16:-0.79595154 17:-0.18944724 18:0.040364588 
1 1:-1.7252089 2:-1.7109691 3:-0.54214528 4:-0.10196252 5:2.0402997 6:3.2876052 7:3.4509668 8:3.6702226 9:2.1544925 10:3.094504 11:-2.5240728 12:-2.9942112 13:-0.87270721 14:-0.61332699 15:-1.409125 16:-0.51250453 17:-1.20253 18:-0.10843462 
0.6278604771429841 1:0.83261193 2:0.84816565 3:-0.57657007 4:-0.66073891 5:-0.75146437 6:-0.58319287 7:-0.24819403 8:-0.76520752 9:0.01644042 10:5.2763021 11:0.22067591 12:-1.8791702 13:-1.9945864 14:-1.5968325 15:-0.66681815 16:0.10336699 17:-0.055397271 18:-0.24690205 
1 1:6.9064794 2:6.7112454 3:4.1588074 4:1.3215104 5:-0.063725701 6:-0.51139737 7:0.77025558 8:-1.9376649 9:-2.4423349 10:2.6630264 11:0.32197922 12:0.25292121 13:0.67328141 14:1.0219322 15:0.38192171 16:0.13245 17:-1.1928056 18:-0.14723103 
0.5062770233577252 1:5.4700656 2:4.9057313 3:-0.91907121 4:-0.45962842 5:-0.51255283 6:-0.33848799 7:0.22600934 8:-0.31152229 9:-0.86758976 10:3.0281025 11:-0.51537496 12:-0.42978926 13:-0.56656295 14:-0.30650872 15:0.37377298 16:-0.25771108 17:-0.78053969 18:4.5084174 
1 1:0.51810848 2:0.52966451 3:0.35913535 4:-0.4807747 5:-0.17087124 6:-0.010377576 7:-0.043869048 8:-0.054667668 9:-0.42088638 10:0.3589954 11:0.28429882 12:0.31998211 13:0.4490854 14:0.48975942 15:-0.26602275 16:0.033722547 17:0.022612092 18:-0.061214436 
1 1:0.44396992 2:0.45177106 3:0.27468681 4:-0.073279905 5:-0.29081842 6:-0.27360392 7:-0.25400246 8:-0.23154919 9:-0.009231034 10:-3.5041314 11:-2.00599 12:-0.064506464 13:0.1962241 14:0.68684786 15:1.2397239 16:1.4001797 17:1.2422856 18:0.75696554 
1 1:-0.27185687 2:-0.30087612 3:0.20255947 4:0.72594903 5:0.56487106 6:-0.35065462 7:-0.5510764 8:-0.62701968 9:0.48537586 10:1.5176065 11:-0.0029680561 12:-0.60967752 13:-0.52468434 14:-0.24271344 15:0.24528649 16:0.84095535 17:0.42752975 18:-0.12721714 
1 1:-0.39436793 2:-0.39156109 3:-0.40173106 4:-0.069315771 5:-0.043717671 6:-0.37313901 7:-0.41802727 8:-0.55045574 9:0.53349623 10:3.3153369 11:0.55118144 12:-0.62360787 13:-0.61648015 14:-0.50397411 15:-0.13766431 16:0.95310848 17:0.26511229 18:-0.31088223 
1 1:-0.027212422 2:-0.025321749 3:-0.0049870227 4:0.10622355 5:0.82667674 6:0.41378911 7:-0.033052426 8:-0.077720887 9:-0.45340931 10:-2.2861458 11:-0.50949526 12:0.25353308 13:0.3658009 14:0.60282891 15:0.82757843 16:0.65784165 17:0.30331544 18:0.16360449 
1 1:-2.8173408 2:-2.4319313 3:0.472468 4:-0.64829316 5:-0.42934342 6:0.67323514 7:0.31222066 8:0.10427097 9:-0.14047574 10:-0.89383117 11:0.65120047 12:-0.98523948 13:-0.40317031 14:1.2150204 15:0.92255439 16:-0.15235004 17:0.092684283 18:0.16460198 
1 1:-0.70928732 2:-0.69121592 3:-0.71387502 4:-0.37929361 5:-0.48519166 6:-0.61302451 7:-0.78286804 8:-0.41151356 9:0.25563255 10:4.6066474 11:0.070029421 12:-1.8965242 13:-2.0479132 14:-1.9181788 15:-1.0264582 16:0.053572231 17:-0.11236059 18:-0.049740833 
1 1:0.55443647 2:0.5708468 3:0.57764824 4:-0.29616486 5:-0.5846091 6:-0.058940272 7:0.0021783121 8:-0.050743298 9:-0.56132999 10:0.78311817 11:0.13804121 12:0.21894813 13:0.4029131 14:0.45833623 15:-0.39788173 16:-0.0080790766 17:-0.23758687 18:-0.22830114 
1 1:-0.17314053 2:-0.20756048 3:0.43331335 4:0.81771781 5:0.36895214 6:-0.43296877 7:-0.54957159 8:-0.54952042 9:0.79264355 10:1.3761905 11:0.087536543 12:-0.63821107 13:-0.66864204 14:-0.56210327 15:-0.19466342 16:0.48524465 17:0.63392268 18:1.33155 
1 1:0.77833363 2:0.7601306 3:1.4052464 4:1.7690367 5:1.2786543 6:0.72398004 7:0.15821245 8:-0.16816968 9:-0.3219499 10:-3.2771447 11:-2.1035052 12:-0.041046551 13:0.38669226 14:1.317393 15:1.7113054 16:1.2371433 17:0.72426728 18:0.091632467 
1 1:1.1153124 2:1.1554251 3:0.67695139 4:0.59068494 5:0.24757649 6:0.1342565 7:0.085725987 8:0.11528187 9:-0.013329108 10:-2.8466737 11:-2.1041483 12:-0.74461341 13:-1.3078803 14:0.76794573 15:1.6617095 16:1.4113829 17:1.1559528 18:0.99902415 
1 1:-2.9414204 2:-2.8576474 3:-3.4628163 4:-4.5666376 5:-4.5236316 6:-2.2722737 7:0.3847089 8:0.51016035 9:-1.6140297 10:4.9422445 11:-1.6524792 12:-1.984874 13:-2.3995522 14:-0.39143069 15:2.5146791 16:2.3215864 17:1.8882695 18:-4.1432029 
1 1:-0.14852974 2:-0.1555429 3:-0.14880794 4:-0.10045831 5:-0.10099471 6:-0.077609077 7:0.46610331 8:0.37358369 9:-0.31958186 10:0.4576437 11:-0.1511505 12:-0.082508528 13:0.0058157475 14:-0.0025158145 15:-0.11371704 16:-0.38374641 17:-0.45138707 18:-0.41989515 
1 1:-1.4835867 2:-1.4999304 3:-1.4981867 4:-1.0802123 5:-0.3067955 6:0.81236325 7:1.1361875 8:1.3564051 9:1.5988074 10:5.8633962 11:1.7282059 12:-1.2939984 13:-1.6761011 14:-1.8565321 15:-2.0675184 16:-2.1912108 17:-3.1548566 18:-1.8419645 
1 1:0.13647211 2:0.11930215 3:0.040722329 4:0.122176 5:0.79037723 6:0.25716553 7:-0.13581278 8:-0.067593038 9:-0.24967566 10:-2.0072142 11:-0.82556929 12:0.10362075 13:0.20840004 14:0.34210847 15:0.42754182 16:0.50759109 17:0.49344615 18:0.29285527 
1 1:-0.11827046 2:-0.11448394 3:-0.05807863 4:0.038858925 5:0.60117752 6:0.49068844 7:-0.17102566 8:-0.16767593 9:0.41864473 10:3.754734 11:-0.46950449 12:-0.71077173 13:-0.84199761 14:-0.8680248 15:-0.61473256 16:-0.25911148 17:0.11801672 18:0.25360354 
1 1:0.15960663 2:0.17503148 3:-0.24606587 4:-0.28713845 5:-0.28686326 6:-0.19719939 7:-0.37198652 8:-0.16499193 9:0.5422756 10:6.1662061 11:0.23945381 12:-1.5570145 13:-1.4198396 14:-1.5799987 15:-0.40795859 16:0.20193978 17:-0.23876444 18:-0.1630391 
1 1:-0.9280215 2:-0.92736729 3:-0.88519976 4:-1.2657067 5:-2.028903 6:-1.8907505 7:0.2922008 8:0.49330917 9:0.70506754 10:4.4233498 11:1.4705557 12:1.0439835 13:0.91356877 14:0.92222444 15:0.90456775 16:0.80637197 17:-0.14122272 18:-0.46540981 
0.2097068259284848 1:1.8166806 2:1.8735877 3:0.85112734 4:-0.37430826 5:-0.46605108 6:-0.63028587 7:0.18709091 8:-0.31347969 9:-1.1474476 10:3.0702762 11:-0.46543349 12:-0.601634 13:-0.54456452 14:-0.029437533 15:0.95035387 16:0.35398157 17:-0.58283213 18:-0.86244793 
1 1:0.84986704 2:0.84074524 3:0.028269945 4:-0.20916023 5:-0.21174221 6:-0.11442343 7:-0.46637695 8:-0.59744917 9:0.16180535 10:-0.66440492 11:-0.7521516 12:-0.14290816 13:0.85440962 14:1.1817309 15:-0.22380684 16:-0.88049009 17:-0.64539526 18:-0.06084982 
1 1:-1.0799366 2:-1.0469816 3:-0.93764305 4:-1.0479974 5:-1.712801 6:-0.86142815 7:-0.14145763 8:-0.34894255 9:-0.57308902 10:5.8152535 11:0.61731487 12:-0.89348445 13:-1.2030968 14:-1.901374 15:-1.6887043 16:-0.22487818 17:-0.063506782 18:-0.15338364 
1 1:0.42923033 2:0.43884851 3:0.33703351 4:0.2248097 5:0.01412195 6:0.23297305 7:-0.32888682 8:-0.96871816 9:-0.15186623 10:-1.4399352 11:-1.5679829 12:-1.3403937 13:-1.2897025 14:-0.9917413 15:-0.36427111 16:0.65904172 17:1.102034 18:-0.20711588 
1 1:-0.28928796 2:-0.28893134 3:-0.12706676 4:0.05469126 5:-0.18708368 6:-0.39255042 7:-0.079900164 8:-0.15293277 9:0.48246164 10:5.8284572 11:1.4955946 12:-1.6185638 13:-2.1788946 14:-1.7327868 15:-1.2396077 16:-0.17548602 17:0.37475424 18:0.24401658 
1 1:-1.0422235 2:-1.0426276 3:-1.3395476 4:-1.3275936 5:-0.35029512 6:0.36485811 7:-0.26508118 8:-0.5515584 9:-0.53913556 10:5.832849 11:-0.018505094 12:-0.76911717 13:-1.0187485 14:-1.3674033 15:-1.1063715 16:-0.16137734 17:0.015136627 18:-0.18708713 
1 1:0.18163081 2:0.19396255 3:-0.12757714 4:-0.096748725 5:0.00033074303 6:-0.11070424 7:-0.30066229 8:-0.22249255 9:-0.88525403 10:6.4503208 11:0.53990583 12:-0.81155146 13:-0.93502564 14:-1.0495798 15:-1.2651 16:-1.9846956 17:-2.8711158 18:-1.2940533 
0.5771075765611862 1:-0.0051645107 2:-0.0054998266 3:-0.042477043 4:-0.03507155 5:-0.031110864 6:-0.07966661 7:-0.18670162 8:-0.34313085 9:-0.29334944 10:5.8176284 11:2.354 12:-0.30097574 13:-1.0440894 14:-1.452286 15:-2.002407 16:-1.7728806 17:-0.4845702 18:-0.088339766 
1 1:-0.18945412 2:-0.17441603 3:-0.31268116 4:-0.51244415 5:-0.67635487 6:-0.74287248 7:-0.24060866 8:-0.74708765 9:-1.952798 10:6.1416133 11:-0.63681997 12:-1.004748 13:-0.70604716 14:-0.17216325 15:0.6607768 16:0.39478591 17:-0.57945315 18:-0.77362211 
1 1:-0.13269286 2:-0.1568585 3:-0.41087614 4:-0.57599203 5:-0.41942518 6:-0.37522964 7:-0.36739538 8:-0.32377457 9:1.0167945 10:4.4046791 11:-0.090279455 12:-1.5499074 13:-1.3396693 14:-1.4322858 15:-0.39693633 16:0.18911784 17:-0.20445125 18:-0.0034122476 
1 1:-0.28442811 2:-0.30988449 3:0.055711064 4:0.42490418 5:0.4829463 6:-0.13712923 7:-0.32859071 8:-0.38262891 9:0.66884224 10:1.7668025 11:0.20669899 12:-0.54668197 13:-0.50109028 14:-0.25512803 15:0.21047938 16:0.70704716 17:0.44429272 18:-0.14547268 
1 1:-0.25029167 2:-0.24647979 3:-0.67467643 4:0.10295994 5:0.78188499 6:-0.79923499 7:-0.94689329 8:-1.985767 9:-3.0429545 10:-6.3336252 11:-1.431536 12:0.79983047 13:-1.4502867 14:-1.3573114 15:-0.15680839 16:0.090609977 17:1.0745296 18:0.74835548 
0.4391262458074759 1:-0.611921 2:-0.59810415 3:-0.27922247 4:0.083937435 5:0.36093951 6:-0.031573857 7:-0.15149636 8:0.032653789 9:1.0319694 10:-0.63054175 11:-0.31409554 12:0.018352049 13:0.16832564 14:0.51044242 15:0.58524283 16:1.0127061 17:1.0537712 18:0.947531 
1 1:-0.4084089 2:-0.42462721 3:-0.39070101 4:-0.27478507 5:-0.66778796 6:-0.85641784 7:-1.0833695 8:-0.62359103 9:1.2869151 10:-1.2102759 11:-1.2403318 12:-0.8231112 13:-0.11932296 14:0.88302411 15:1.4917447 16:0.76419922 17:0.32613646 18:0.30117982 
1 1:0.33191631 2:0.32407537 3:0.70627511 4:-0.14902876 5:-0.62524879 6:-0.67265434 7:-0.14870918 8:-0.33504234 9:-1.3475605 10:3.5669266 11:-0.20193058 12:-1.0721731 13:-0.88481485 14:-0.67553184 15:-0.11065785 16:0.052950257 17:-0.52552262 18:-0.53292931 
1 1:-3.5846113 2:-3.5850785 3:-1.1727621 4:0.14572923 5:2.8969219 6:3.8928802 7:0.53639712 8:-0.49989659 9:0.0049079345 10:3.7426338 11:0.010721037 12:-1.6087918 13:-1.4906471 14:-1.4644035 15:-0.42468094 16:-0.06416574 17:-0.28877143 18:-0.066240876 
1 1:-1.9077153 2:-1.9366659 3:-3.2020553 4:-6.2574144 5:-5.3155804 6:-0.75387513 7:0.23160899 8:-2.7373174 9:0.55578689 10:6.5582973 11:4.4013498 12:1.7955274 13:0.15633883 14:1.5878297 15:3.0312775 16:4.259677 17:3.321826 18:1.857026 
1 1:-0.79122215 2:-0.78816321 3:-0.77301135 4:-0.6267606 5:-0.60106887 6:-0.45066074 7:-0.4033034 8:-0.75042295 9:1.087483 10:6.8847706 11:1.9262707 12:-0.56683438 13:-1.4993284 14:-1.747402 15:-1.9087426 16:-1.8528701 17:-0.5196471 18:-0.064945363 
1 1:-0.0032164737 2:0.0031691938 3:0.0016825748 4:-0.011991329 5:0.63807934 6:0.69753143 7:-0.1907653 8:-0.038098492 9:-0.54243104 10:-2.2556933 11:-0.48325381 12:0.21654429 13:0.45248603 14:0.67908567 15:0.87365093 16:0.77033179 17:0.45978225 18:0.22714901 
0.2133650673536392 1:1.9089321 2:1.9384865 3:3.0894791 4:2.6101475 5:1.1166203 6:-0.52919509 7:0.28845117 8:-0.45076434 9:-1.7261937 10:4.661243 11:-1.58344 12:-2.5255131 13:-2.3975567 14:-1.2292496 15:0.87356795 16:2.0297733 17:0.76590513 18:-0.86259993 
0.5230971315140309 1:-1.0859539 2:-1.0873219 3:-1.1585168 4:-1.1344598 5:-1.0219357 6:-1.0070157 7:-0.59399255 8:-0.74209671 9:-1.4020426 10:3.3862547 11:-0.50450284 12:-0.076265237 13:-0.017231733 14:0.24001623 15:0.71949083 16:1.7870875 17:3.6690491 18:2.1121217 
1 1:-0.40372032 2:-0.40550264 3:-0.38400534 4:-0.30873129 5:-0.12834258 6:-0.14315067 7:-0.329457 8:-0.52592853 9:0.044713295 10:7.6675066 11:2.4060235 12:-0.51352747 13:-1.3144326 14:-1.5730505 15:-1.7977861 16:-2.196647 17:-1.356437 18:-0.032204377 
1 1:-0.80417332 2:-0.80268649 3:-1.4188997 4:-1.3254581 5:-1.0833792 6:-0.36038175 7:-0.078470983 8:-0.19637525 9:-0.037094447 10:1.2161947 11:-0.1812141 12:-0.94497593 13:-0.36647741 14:0.31344358 15:0.24986883 16:2.0172141 17:3.7156625 18:-1.2604122 
0.4220327987706278 1:-4.0301045 2:-4.3190635 3:-2.6055743 4:-2.0138271 5:-1.3355006 6:0.99205752 7:2.7145515 8:0.7694238 9:-0.92802861 10:4.076842 11:-0.76868092 12:-1.6949434 13:-1.3432398 14:0.60187275 15:2.5330767 16:2.1874475 17:0.77285128 18:-0.15494157 
1 1:-0.13961453 2:-0.13779818 3:-0.18220338 4:-0.14628816 5:-0.068261134 6:-0.16989903 7:-0.467377 8:-0.51374622 9:-0.56995221 10:6.0045355 11:2.7180408 12:-0.26496051 13:-1.2550596 14:-1.582038 15:-1.9232423 16:-2.0288105 17:-1.2583566 18:-0.35779956 
1 1:-0.56188479 2:-0.57585744 3:-0.31216469 4:0.15070579 5:0.16090512 6:-0.54478672 7:-0.44899997 8:0.073952543 9:0.079966409 10:1.0654376 11:-0.43255248 12:-0.27116476 13:0.23067905 14:-0.016363389 15:-0.67148552 16:-0.78433009 17:-0.42860173 18:-0.42804466 
1 1:0.024722347 2:0.023818559 3:0.098140473 4:0.065639389 5:0.14517396 6:0.098270786 7:0.10181458 8:0.12504485 9:-0.10536695 10:1.7047735 11:0.9859841 12:0.1968264 13:-0.2157466 14:-0.21366491 15:-0.22330144 16:-0.5098599 17:-0.79173769 18:-0.72804271 
1 1:-0.071499353 2:-0.21523921 3:-0.88054709 4:-0.24860268 5:-0.023279137 6:0.64740644 7:-0.14072008 8:1.6128844 9:0.83934221 10:1.9766209 11:0.096344134 12:-0.26505106 13:-0.030248527 14:-4.1746756 15:-4.3167356 16:-1.2754464 17:0.23679474 18:0.069451631 
0.7012632617758994 1:-0.019926802 2:-0.023060072 3:-0.081908502 4:0.01819137 5:0.074534889 6:0.11309597 7:0.64911624 8:0.6016175 9:-0.060077929 10:0.74260628 11:-0.058049028 12:0.09920871 13:0.04920219 14:0.033004983 15:0.035809972 16:-0.29280834 17:-0.30261051 18:-0.3435041 
1 1:-1.7674223 2:-1.7919299 3:-0.62011309 4:-0.052036343 5:-0.056690174 6:-0.012143046 7:0.96878378 8:0.3432884 9:-0.41798475 10:5.4530244 11:-0.29678776 12:-0.72597406 13:-0.95945225 14:-1.2685914 15:-1.4540898 16:-0.52649773 17:1.6545193 18:-2.267525 
1 1:-1.1296429 2:-1.1562949 3:-0.45145227 4:0.16121755 5:0.52472028 6:0.33811295 7:-0.17838407 8:0.081043923 9:-0.43404301 10:5.4263726 11:-2.6816661 12:-2.1599149 13:0.12367039 14:-0.25767705 15:-0.74906646 16:-0.17963086 17:0.21388 18:0.11635936 
0.169189827872503 1:-2.1217767 2:-2.1610522 3:-1.7896001 4:-0.34157942 5:-0.12644858 6:-0.50036087 7:-0.10172744 8:0.60662064 9:-0.69901726 10:2.5994941 11:-0.12694219 12:-0.71312357 13:-0.53870718 14:-0.18748923 15:0.12121802 16:0.6208596 17:0.39331669 18:-0.093731009 
0.1587611188129356 1:-2.802573 2:-2.9081363 3:-0.84569573 4:1.4345992 5:1.10975 6:-0.18492004 7:0.43764809 8:-0.67165946 9:-1.6118676 10:5.355677 11:-0.84361814 12:-2.1495188 13:-2.6143008 14:-1.9500632 15:0.31738039 16:2.1599766 17:1.8618896 18:-0.061282399 
1 1:-0.43789334 2:-0.4643369 3:-0.53302091 4:-0.053393115 5:0.26721703 6:-0.46626108 7:-0.46811884 8:0.1510906 9:0.11418328 10:0.69499313 11:-0.32312018 12:0.1451331 13:-0.10131168 14:-0.68758587 15:-0.70719477 16:-0.42048195 17:-0.66218091 18:-0.82298506 
1 1:0.23960645 2:0.21570999 3:0.014046354 4:0.032453133 5:0.19837538 6:0.25970336 7:0.82038841 8:-0.18689262 9:-1.8455919 10:1.4218284 11:-3.1133636 12:-2.5857651 13:-1.0762442 14:-0.098149131 15:1.4235346 16:1.604109 17:0.21784886 18:-0.2322473 
1 1:-1.1774178 2:-1.2232739 3:-0.75405538 4:-0.99737802 5:-0.60096322 6:0.010789362 7:-1.4521985 8:-7.0848709 9:-5.2984919 10:4.1625951 11:3.1330794 12:1.8901037 13:2.309573 14:2.5504218 15:2.2491844 16:2.3713424 17:2.3414508 18:2.0448531 
0.03718259383323665 1:-0.22054894 2:-0.22219967 3:-0.23096257 4:0.0013152182 5:-0.0052583267 6:-0.32858668 7:-0.41104784 8:-0.51170187 9:0.23526622 10:1.2407684 11:-1.2605885 12:-0.68250531 13:-0.41960123 14:0.0047537066 15:0.80967854 16:1.5035592 17:0.78231366 18:-0.10091777 
0.5866871323401531 1:0.20558808 2:0.2086289 3:0.43660631 4:0.22218088 5:0.35669611 6:0.66155211 7:0.64574903 8:0.074562938 9:-0.1983922 10:3.5351626 11:-4.0685559 12:-1.9107893 13:0.22024959 14:0.24161255 15:-0.040089388 16:0.75796493 17:1.0424802 18:0.74769956 
1 1:0.31463962 2:0.31821859 3:0.17179143 4:0.023965317 5:-0.3253135 6:-0.34921432 7:-0.36976977 8:-0.36089713 9:-0.15253906 10:-4.0782699 11:-2.273024 12:-0.017033084 13:0.35327459 14:0.99987497 15:1.5183733 16:1.5964297 17:1.2306319 18:0.65301835 
1 1:-0.036655494 2:-0.026973658 3:-0.050144586 4:-0.49730867 5:-1.377837 6:-1.2523434 7:-0.50335547 8:-0.25446643 9:0.18367353 10:5.4126385 11:-1.0545363 12:-0.91451444 13:-0.86323517 14:-0.65749155 15:-0.28721564 16:0.14530491 17:-0.085700024 18:-0.35174192 
1 1:-0.35801663 2:-0.34974379 3:-0.2953555 4:-0.26678025 5:-0.28067892 6:0.3400497 7:-0.073252427 8:-0.51561421 9:0.44516893 10:-0.79999128 11:-0.57372896 12:-0.077700689 13:0.091113657 14:0.41614965 15:1.3935995 16:2.25837 17:1.3592802 18:-0.045490951 
0.9770785425732644 1:-0.13832746 2:-0.1603842 3:0.10788409 4:0.67286715 5:2.2083591 6:3.3402064 7:1.1179154 8:-0.8229083 9:-1.5677913 10:3.3299165 11:-1.3687558 12:-0.79130255 13:-0.67537472 14:-0.41164649 15:0.16187625 16:1.32179 17:2.565553 18:0.39666096 
1 1:-0.38339332 2:-0.37537419 3:-0.25597964 4:-0.2617013 5:-0.25184084 6:0.33148244 7:-0.11209939 8:-0.5222034 9:0.59377586 10:-1.3531421 11:-0.74452381 12:-0.13714057 13:0.0061050649 14:0.33543081 15:1.2030757 16:2.126188 17:1.4546418 18:0.0037263006 
1 1:5.0727181 2:5.2418818 3:-0.094152622 4:-1.4878719 5:-1.5378251 6:-1.172379 7:0.089198769 8:-0.23327774 9:0.34626129 10:5.257639 11:1.2565183 12:-1.5165716 13:-1.8354029 14:-1.4066563 15:-0.90224116 16:0.094961113 17:0.097656699 18:-0.51382636 
1 1:0.14076584 2:0.13474597 3:0.054242997 4:0.11886537 5:0.87078193 6:0.2925314 7:-0.0089282452 8:0.0090902901 9:-0.50971563 10:-2.2908438 11:-0.74024353 12:0.14948018 13:0.29894802 14:0.45798389 15:0.627574 16:0.54218879 17:0.3902229 18:0.21171592 
0.4868984314247871 1:0.73482879 2:0.72359581 3:0.62976943 4:0.14167947 5:-0.22848737 6:-0.023078122 7:0.02711877 8:0.028246933 9:-0.12471502 10:0.7445074 11:-0.74215261 12:-0.69671339 13:-0.14188068 14:-0.050576478 15:0.089595816 16:0.52233705 17:0.65393021 18:0.21118235 
1 1:1.4506284 2:1.454267 3:1.6795019 4:1.2620922 5:0.63682539 6:0.21050202 7:-0.080074934 8:-0.1996203 9:-0.31179851 10:-3.376644 11:-1.8596387 12:-0.19248474 13:0.59749141 14:1.3018537 15:1.6107849 16:1.0149276 17:0.57131091 18:0.15211532 
1 1:-2.1718313 2:-2.1022674 3:-1.7681025 4:-3.3068225 5:-5.223639 6:-2.2768616 7:2.181168 8:-2.7840801 9:-4.8663265 10:4.1149564 11:3.7380878 12:-0.53473157 13:-2.1772577 14:-0.86889975 15:0.76936118 16:1.7658116 17:1.8374767 18:1.7989983 
1 1:-0.03454623 2:-0.021563927 3:-0.19852395 4:-0.26731372 5:-0.36165274 6:-0.34115993 7:-0.29478534 8:0.045740947 9:-0.22269975 10:1.3578289 11:-1.2206915 12:-0.88602754 13:-0.13557799 14:0.046924545 15:0.23989301 16:0.83679974 17:1.0583381 18:0.24513317 
1 1:-0.22739142 2:-0.23202137 3:-0.22957788 4:-0.19731345 5:-0.16657559 6:0.35280534 7:-0.070251229 8:-0.45079752 9:0.34847227 10:-1.0369424 11:-0.69452684 12:-0.21067664 13:-0.059445816 14:0.23852974 15:1.0049056 16:2.0775712 17:1.7349017 18:0.10205079 
0.8888855473377772 1:-0.20149632 2:-0.1952467 3:0.57216559 4:0.59346202 5:-0.10959299 6:-0.31584064 7:-0.5233945 8:-0.55967155 9:-0.39707306 10:5.0000445 11:0.26786035 12:-1.4338229 13:-0.66536615 14:0.37245714 15:0.4328707 16:-0.28726719 17:-0.31609928 18:-0.6139527 
1 1:0.23703631 2:0.24200973 3:0.17856395 4:0.070484174 5:-0.092074929 6:-0.09870312 7:-0.14274319 8:-0.15962955 9:0.01026155 10:-3.6252163 11:-1.8911391 12:-0.034240523 13:0.11251334 14:0.61237613 15:1.0961683 16:1.250869 17:0.98144513 18:0.47486073 
1 1:0.27481228 2:0.095918395 3:1.4119396 4:-1.0773695 5:-1.1457046 6:-0.14852705 7:0.98694361 8:-0.22029434 9:-0.28967218 10:-1.6490053 11:1.0580929 12:-1.0554705 13:-0.68506261 14:0.57136899 15:0.78856973 16:0.46237656 17:0.12662025 18:0.20990475 
1 1:-0.29541559 2:-0.29842328 3:-0.31926126 4:-0.2162724 5:-0.17742121 6:0.35228781 7:-0.086833615 8:-0.51988213 9:0.60939923 10:-0.98872059 11:-0.59023352 12:-0.10729652 13:0.026397557 14:0.3437805 15:1.1915807 16:2.1882805 17:1.656522 18:0.082106477 
0.6419616072654942 1:-0.015049704 2:-0.03893673 3:0.14489078 4:-0.10916119 5:0.36473492 6:-0.13891126 7:0.59902893 8:0.44696045 9:-0.015584936 10:2.6921816 11:-1.5013561 12:-1.9662673 13:-0.74936692 14:0.28386178 15:1.4377845 16:0.81269265 17:-0.61028016 18:-0.41725255 
0.611693867975368 1:1.3869122 2:1.3614334 3:2.8175854 4:2.6055207 5:0.95381167 6:-0.50459888 7:0.5162683 8:-0.39863293 9:-1.4523022 10:5.1154787 11:-1.620229 12:-2.406443 13:-2.3747833 14:-1.3608006 15:0.59614795 16:1.8487601 17:0.86624866 18:-0.44240973 
1 1:0.41805196 2:0.36351553 3:1.9821662 4:2.1316655 5:0.34562849 6:-0.55570451 7:0.30444298 8:-0.83622428 9:-2.0569114 10:5.7706763 11:-1.0873463 12:-2.4738457 13:-2.7139001 14:-2.1031539 15:-0.096440402 16:1.759473 17:1.187871 18:-0.31654942 
1 1:-0.19803974 2:-0.20109365 3:-0.20183245 4:-0.14758751 5:-0.11146447 6:-0.12738325 7:0.27235698 8:0.30948193 9:-0.41458484 10:0.30748662 11:-0.32434794 12:-0.3346285 13:-0.26520507 14:-0.20872735 15:-0.13730142 16:-0.23104997 17:-0.31372513 18:-0.28425126 
1 1:0.357977 2:0.39707011 3:0.63865784 4:0.70437913 5:-0.092432278 6:-0.52165594 7:-0.53544705 8:-0.4798171 9:0.74288989 10:1.3899706 11:0.040516815 12:-0.74027427 13:-0.76675697 14:-0.56621403 15:-0.20751026 16:0.36460275 17:0.53275265 18:1.312109 
0.9160148824830752 1:-0.37801994 2:-0.38287163 3:-0.23937377 4:0.089676426 5:-0.24758046 6:-0.81221125 7:-0.59236849 8:-0.085455731 9:-0.30622035 10:0.1395112 11:-0.12251241 12:0.47469434 13:0.0035872874 14:-0.30336427 15:-0.25853819 16:0.0099654082 17:-0.027800107 18:-0.28381929 
0.09098577179222185 1:-0.076176787 2:-0.11583212 3:0.11531398 4:0.47979082 5:0.95730068 6:0.26832095 7:0.27602153 8:-1.354755 9:2.1071293 10:-4.8599679 11:-0.81575919 12:0.55740187 13:1.0896653 14:0.96492609 15:1.3674055 16:0.65413859 17:0.42058699 18:0.11907789 
1 1:0.18537181 2:0.2135164 3:0.32265255 4:-0.29292957 5:-0.62895707 6:-0.70974853 7:-0.52063028 8:-0.34424959 9:-0.28924382 10:0.80194558 11:0.17297841 12:-0.12179771 13:-0.18235357 14:-0.18444372 15:-0.36483207 16:-0.44873132 17:-0.24131219 18:-0.018375644 
1 1:-0.078300991 2:-0.084839876 3:-0.035283514 4:-0.10173269 5:-0.12596106 6:-0.23156318 7:0.37255771 8:0.26791129 9:-0.66190593 10:-0.064086099 11:-0.54445305 12:-0.39062609 13:-0.37031597 14:-0.36055698 15:-0.4548318 16:-0.64522098 17:-0.60992535 18:-0.39763607 
1 1:0.40972707 2:0.37134493 3:-0.01785791 4:0.41507989 5:0.01287996 6:-0.108179 7:-0.52692684 8:-0.13549021 9:1.0458504 10:6.5129624 11:0.37337767 12:-1.7802747 13:-1.8921443 14:-1.6611084 15:-0.8033341 16:0.21389589 17:0.038914001 18:0.56766535 
1 1:1.3125128 2:1.3236639 3:0.81158682 4:0.19122446 5:-0.16923037 6:-0.12107217 7:-0.17482673 8:-0.22626381 9:-0.27200621 10:-3.7444196 11:-1.9070019 12:0.15140176 13:0.56386248 14:1.5111141 15:2.0741901 16:1.6100367 17:0.86965714 18:0.17475908 
1 1:3.6930702 2:3.7916788 3:3.4045059 4:1.0381146 5:-0.11430177 6:-0.47469371 7:-0.58887739 8:-0.56927327 9:-0.025322757 10:5.1545751 11:0.34271591 12:-1.767923 13:-1.5591051 14:-1.1871142 15:-0.11717006 16:-0.085501664 17:-0.55768443 18:-0.31612229 
1 1:0.63593233 2:0.64321495 3:0.35195543 4:0.41734111 5:0.67266646 6:-0.33736962 7:-0.454026 8:-0.2813985 9:-0.33674304 10:6.4615125 11:-0.16222011 12:-2.1659263 13:-1.4195563 14:-1.7279249 15:-1.4804633 16:-0.46423726 17:0.39697345 18:0.57146155 
1 1:-0.11847728 2:-0.14753137 3:0.042470235 4:0.35070398 5:-0.30748454 6:-0.75608199 7:-0.34177118 8:0.22249295 9:-0.12494311 10:0.55043186 11:-0.27818196 12:0.23761562 13:-0.11349854 14:-0.27736551 15:-0.44010497 16:-0.34879758 17:-0.58484581 18:-0.87102813 
1 1:0.00043097011 2:-0.0026753198 3:-0.1814005 4:-0.17015387 5:-0.17566194 6:-0.74199973 7:0.22132672 8:0.2528572 9:0.21835169 10:4.1051875 11:0.79901838 12:-0.78734067 13:-0.92640078 14:-1.4371624 15:-1.3746215 16:-0.47537763 17:-1.2341856 18:-1.6955668 
1 1:-0.23167696 2:-0.23399839 3:-0.24096928 4:-0.097294926 5:0.049046159 6:0.11244901 7:-0.11300179 8:-0.30577059 9:-0.097913414 10:5.9212717 11:2.8553982 12:0.11884893 13:-1.0326846 14:-1.3656131 15:-1.7565866 16:-2.126698 17:-1.3216009 18:-0.13831593 
0.2818155832210859 1:-0.75849394 2:-0.7645737 3:-0.87985291 4:-1.1731232 5:-0.95516267 6:-0.20471199 7:1.6956209 8:0.59478233 9:-0.24691168 10:3.4654583 11:-0.015004015 12:-2.6794701 13:-3.2984825 14:-3.174152 15:-0.82329883 16:1.4643657 17:1.5702604 18:0.58726273 
1 1:2.4402269 2:2.2128695 3:-1.5302216 4:-1.8429494 5:-1.1651047 6:-0.29462828 7:0.14840531 8:-0.48344184 9:-0.20517784 10:4.952795 11:0.82962019 12:-1.7402059 13:-1.4926059 14:-0.8476547 15:-0.033648877 16:0.11496286 17:-0.13773849 18:-0.27047147 
1 1:0.77527312 2:0.79424029 3:1.124692 4:0.52881832 5:0.0010929935 6:-0.25925944 7:-0.20955757 8:-0.38003704 9:0.80506979 10:3.3861346 11:-0.1516623 12:-1.4884702 13:-1.2455601 14:-0.80865094 15:0.1613323 16:0.27947363 17:-0.20752931 18:-0.33679685 
0.1170137594252478 1:0.25727839 2:0.26980621 3:-0.40791251 4:-0.21809205 5:-0.26623523 6:-0.72080139 7:-0.45012879 8:-0.19415724 9:-0.82977816 10:1.507552 11:-0.30632766 12:-1.1976516 13:-0.80761546 14:0.74385801 15:0.82393777 16:0.68917319 17:-1.3292536 18:-7.2625028 
1 1:-0.69948815 2:-0.72028136 3:-0.60488333 4:-0.49469685 5:-0.30682352 6:-0.83173647 7:-0.80455926 8:0.27021354 9:0.2280246 10:1.4011862 11:-0.12761105 12:0.17294153 13:0.32519938 14:-0.142079 15:-0.15858439 16:0.031899293 17:0.095778537 18:-0.10144167 
0.8387723954292041 1:-1.0836777 2:-1.0853874 3:-1.3208164 4:-1.2282476 5:-0.61256651 6:-0.22706472 7:0.38226186 8:0.17488284 9:0.79912387 10:4.8307408 11:1.0477763 12:-1.1391597 13:-0.5043938 14:0.61022825 15:1.3781419 16:2.1952309 17:2.5044184 18:0.70304229 
1 1:0.68266581 2:0.6689574 3:2.1394088 4:2.3498706 5:-1.0095346 6:0.066744858 7:0.12837721 8:-0.70436081 9:-1.2229688 10:3.2735535 11:0.96645847 12:-1.3916669 13:-3.5912381 14:-1.1634669 15:0.43304667 16:0.72994316 17:-0.95775177 18:-0.3375239 
0.1973204777337393 1:0.74171066 2:0.74395073 3:0.60650185 4:0.52394865 5:0.61032543 6:0.47587562 7:0.35654875 8:0.54584088 9:0.13279461 10:4.9413002 11:0.04816288 12:-0.18347086 13:-0.2187896 14:-0.45536139 15:-0.69958135 16:-1.7831107 17:-3.1364515 18:-2.6358814 
1 1:0.64575718 2:0.66489757 3:0.83570221 4:0.61763536 5:0.58857362 6:0.58183039 7:0.45740606 8:0.52477656 9:0.26647872 10:3.9328088 11:0.34215121 12:-0.017853864 13:-0.36934928 14:-0.57158518 15:-1.3671545 16:-2.9716192 17:-2.30554 18:-0.30750543 
1 1:0.020365774 2:0.033186786 3:0.025602601 4:-0.0079151925 5:-0.030374713 6:0.37089608 7:-0.15610271 8:-0.23563531 9:-0.25621763 10:2.3698335 11:0.86896348 12:0.20747344 13:-0.038977468 14:-0.37755468 15:-0.69451342 16:-0.67093145 17:-0.61714246 18:-0.5904861 
1 1:-2.0413043 2:-2.048541 3:-1.7645817 4:-0.85463146 5:0.38048566 6:0.1329894 7:0.053063744 8:-0.05062734 9:-0.1242179 10:5.4183465 11:0.80045365 12:-1.8615073 13:-1.6850755 14:-0.98545374 15:0.021600304 16:-0.057397644 17:-0.18800973 18:-0.18849065 
1 1:0.37218395 2:0.38403347 3:0.42805617 4:0.40741064 5:0.059174262 6:-0.75469798 7:0.11920281 8:0.14497051 9:-0.21027568 10:0.85828221 11:-0.3789977 12:0.36263198 13:0.35421578 14:0.23122156 15:-0.77500393 16:-0.35864544 17:0.087195722 18:-0.07200582 
